{"learner":{"attributes":{"scikit_learn":"{\"_estimator_type\": \"classifier\"}"},"feature_names":[],"feature_types":[],"gradient_booster":{"model":{"cats":{"enc":[],"feature_segments":[],"sorted_idx":[]},"gbtree_model_param":{"num_parallel_tree":"1","num_trees":"350"},"iteration_indptr":[0,7,14,21,28,35,42,49,56,63,70,77,84,91,98,105,112,119,126,133,140,147,154,161,168,175,182,189,196,203,210,217,224,231,238,245,252,259,266,273,280,287,294,301,308,315,322,329,336,343,350],"tree_info":[0,1,2,3,4,5,6,0,1,2,3,4,5,6,0,1,2,3,4,5,6,0,1,2,3,4,5,6,0,1,2,3,4,5,6,0,1,2,3,4,5,6,0,1,2,3,4,5,6,0,1,2,3,4,5,6,0,1,2,3,4,5,6,0,1,2,3,4,5,6,0,1,2,3,4,5,6,0,1,2,3,4,5,6,0,1,2,3,4,5,6,0,1,2,3,4,5,6,0,1,2,3,4,5,6,0,1,2,3,4,5,6,0,1,2,3,4,5,6,0,1,2,3,4,5,6,0,1,2,3,4,5,6,0,1,2,3,4,5,6,0,1,2,3,4,5,6,0,1,2,3,4,5,6,0,1,2,3,4,5,6,0,1,2,3,4,5,6,0,1,2,3,4,5,6,0,1,2,3,4,5,6,0,1,2,3,4,5,6,0,1,2,3,4,5,6,0,1,2,3,4,5,6,0,1,2,3,4,5,6,0,1,2,3,4,5,6,0,1,2,3,4,5,6,0,1,2,3,4,5,6,0,1,2,3,4,5,6,0,1,2,3,4,5,6,0,1,2,3,4,5,6,0,1,2,3,4,5,6,0,1,2,3,4,5,6,0,1,2,3,4,5,6,0,1,2,3,4,5,6,0,1,2,3,4,5,6,0,1,2,3,4,5,6,0,1,2,3,4,5,6,0,1,2,3,4,5,6,0,1,2,3,4,5,6,0,1,2,3,4,5,6,0,1,2,3,4,5,6,0,1,2,3,4,5,6,0,1,2,3,4,5,6,0,1,2,3,4,5,6],"trees":[{"base_weights":[-7.815952E-3,1.6137134E0,-8.888497E-2,2.7677052E0,1.1410751E0,-1.952546E-1,9.055962E-1,3.191012E0,1.0987226E0,1.878736E0,6.86706E-1,-2.9837444E-1,2.389703E-1,1.888457E0,5.5254126E-1,1.653543E-1,6.5115504E-2,1.4910612E-1,2.803268E-3,1.06680036E-1,2.9766492E-3,8.632609E-2,2.1429557E-2,-1.6479604E-2,2.449713E-2,4.4719674E-2,4.5689545E-3,5.230273E-2,1.2187125E-1,1.3220808E-1,2.246947E-2],"categories":[],"categories_nodes":[],"categories_segments":[],"categories_sizes":[],"default_left":[0,0,0,0,0,0,0,0,0,0,0,0,0,0,0,0,0,0,0,0,0,0,0,0,0,0,0,0,0,0,0],"id":0,"left_children":[1,3,5,7,9,11,13,15,17,19,21,23,25,27,29,-1,-1,-1,-1,-1,-1,-1,-1,-1,-1,-1,-1,-1,-1,-1,-1],"loss_changes":[8.277275E2,1.6036609E2,6.345251E2,5.754413E1,7.0570404E1,2.4267906E2,2.0008337E2,1.0689453E1,3.715959E1,3.749704E1,3.5292374E1,1.0792062E2,1.0055373E2,6.8096924E1,9.1121155E1,0E0,0E0,0E0,0E0,0E0,0E0,0E0,0E0,0E0,0E0,0E0,0E0,0E0,0E0,0E0,0E0],"parents":[2147483647,0,0,1,1,2,2,3,3,4,4,5,5,6,6,7,7,8,8,9,9,10,10,11,11,12,12,13,13,14,14],"right_children":[2,4,6,8,10,12,14,16,18,20,22,24,26,28,30,-1,-1,-1,-1,-1,-1,-1,-1,-1,-1,-1,-1,-1,-1,-1,-1],"split_conditions":[3.529412E-1,2.342E4,5.5555557E-3,4.0690784E0,4.5454547E-2,8.196721E-2,9.663866E-2,1.5822785E-2,5.524862E-3,6.756757E-3,9.2678407E-4,4.3666667E-1,1.3438736E-1,1.754386E-2,1.6666667E-1,1.653543E-1,6.5115504E-2,1.4910612E-1,2.803268E-3,1.06680036E-1,2.9766492E-3,8.632609E-2,2.1429557E-2,-1.6479604E-2,2.449713E-2,4.4719674E-2,4.5689545E-3,5.230273E-2,1.2187125E-1,1.3220808E-1,2.246947E-2],"split_indices":[586,428,497,458,8,16,546,364,92,245,186,433,527,534,509,0,0,0,0,0,0,0,0,0,0,0,0,0,0,0,0],"split_type":[0,0,0,0,0,0,0,0,0,0,0,0,0,0,0,0,0,0,0,0,0,0,0,0,0,0,0,0,0,0,0],"sum_hessian":[6.294531E3,2.9881314E2,5.995718E3,8.541307E1,2.1340007E2,5.417108E3,5.7860974E2,6.740506E1,1.8008007E1,8.014735E1,1.3325273E2,4.377783E3,1.0393245E3,1.5176529E2,4.2684445E2,6.27949E1,4.610162E0,5.7540627E0,1.2253945E1,7.0147125E1,1.0000219E1,2.536815E1,1.07884575E2,4.211585E3,1.6619823E2,1.9009418E2,8.4923035E2,6.102567E1,9.073962E1,1.8903465E1,4.0794098E2],"tree_param":{"num_deleted":"0","num_feature":"607","num_nodes":"31","size_leaf_vector":"1"}},{"base_weights":[2.44924E-3,1.7531763E-1,-2.1338792E-1,-2.133216E-2,3.221781E-1,3.451353E-2,-3.1924063E-1,-3.8213855E-1,9.5921345E-2,5.669862E-1,1.3188204E-1,2.3791617E-1,-3.4717077E-1,-3.343345E-1,1.2137235E0,4.5567073E-2,-2.0895828E-2,9.9993115E-3,-1.2361848E-2,2.1537863E-2,7.334805E-2,3.8706728E-3,4.7258925E-2,3.5856333E-2,-2.230859E-3,-2.0433245E-2,7.1009815E-2,-1.7273674E-2,6.9801204E-2,-2.5760433E-2,1.2021949E-1],"categories":[],"categories_nodes":[],"categories_segments":[],"categories_sizes":[],"default_left":[0,0,0,0,0,0,0,0,0,0,0,0,0,0,0,0,0,0,0,0,0,0,0,0,0,0,0,0,0,0,0],"id":1,"left_children":[1,3,5,7,9,11,13,15,17,19,21,23,25,27,29,-1,-1,-1,-1,-1,-1,-1,-1,-1,-1,-1,-1,-1,-1,-1,-1],"loss_changes":[2.3034435E2,9.9007645E1,7.2057434E1,6.207831E1,9.1349884E1,6.3933865E1,4.4926666E1,1.7035854E1,3.9603172E1,1.0456201E2,4.889879E1,7.275444E1,3.1699142E1,3.722197E1,4.0303345E1,0E0,0E0,0E0,0E0,0E0,0E0,0E0,0E0,0E0,0E0,0E0,0E0,0E0,0E0,0E0,0E0],"parents":[2147483647,0,0,1,1,2,2,3,3,4,4,5,5,6,6,7,7,8,8,9,9,10,10,11,11,12,12,13,13,14,14],"right_children":[2,4,6,8,10,12,14,16,18,20,22,24,26,28,30,-1,-1,-1,-1,-1,-1,-1,-1,-1,-1,-1,-1,-1,-1,-1,-1],"split_conditions":[3.2142857E-1,1.9102197E-3,3.669355E-1,1.776199E-3,2.8328612E-3,5.376344E-3,9.90099E-3,1.4285715E-1,8.11359E-3,2.3809525E-3,4.842615E-3,3.0864198E-3,6.7114094E-3,7.936508E-3,7.2674416E-2,4.5567073E-2,-2.0895828E-2,9.9993115E-3,-1.2361848E-2,2.1537863E-2,7.334805E-2,3.8706728E-3,4.7258925E-2,3.5856333E-2,-2.230859E-3,-2.0433245E-2,7.1009815E-2,-1.7273674E-2,6.9801204E-2,-2.5760433E-2,1.2021949E-1],"split_indices":[587,198,482,81,337,76,87,598,217,337,155,321,271,53,423,0,0,0,0,0,0,0,0,0,0,0,0,0,0,0,0],"split_type":[0,0,0,0,0,0,0,0,0,0,0,0,0,0,0,0,0,0,0,0,0,0,0,0,0,0,0,0,0,0,0],"sum_hessian":[6.1715586E3,3.4269956E3,2.744563E3,1.4655042E3,1.9614915E3,8.2144824E2,1.9231147E3,3.5888937E2,1.1066147E3,8.570072E2,1.1044843E3,5.3612146E2,2.8532678E2,1.9051382E3,1.7976458E1,9.00109E0,3.4988828E2,8.494354E2,2.5717935E2,7.4562134E2,1.11385864E2,1.0361836E3,6.830073E1,1.9827875E2,3.3784274E2,2.764758E2,8.850981E0,1.8937478E3,1.1390426E1,7.5624847E0,1.0413973E1],"tree_param":{"num_deleted":"0","num_feature":"607","num_nodes":"31","size_leaf_vector":"1"}},{"base_weights":[-6.058246E-3,-3.5751592E-2,8.2836765E-1,-2.0885931E-1,5.649305E-2,2.5712815E-1,1.9121271E0,-2.3668087E-1,2.9703057E-1,-2.0289334E-2,3.3345136E-1,1.0035048E-2,1.6617024E0,3.1344516E0,8.0550086E-1,-6.438856E-3,-1.7219191E-2,6.0859878E-2,-6.045585E-3,-6.5389858E-3,5.0136074E-3,9.648617E-3,4.232691E-2,-8.105479E-3,6.50693E-2,1.103007E-3,1.21025264E-1,1.6481102E-1,5.4142226E-2,1.2450927E-1,6.2727802E-3],"categories":[],"categories_nodes":[],"categories_segments":[],"categories_sizes":[],"default_left":[0,0,0,0,0,0,0,0,0,0,0,0,0,0,0,0,0,0,0,0,0,0,0,0,0,0,0,0,0,0,0],"id":2,"left_children":[1,3,5,7,9,11,13,15,17,19,21,23,25,27,29,-1,-1,-1,-1,-1,-1,-1,-1,-1,-1,-1,-1,-1,-1,-1,-1],"loss_changes":[1.5505199E2,9.6503075E1,1.3263577E2,2.963884E1,8.385359E1,4.9255955E1,9.76629E1,2.3104416E1,4.2434036E1,4.1147556E1,6.152719E1,2.7273245E1,2.636414E1,7.9963074E0,4.5765335E1,0E0,0E0,0E0,0E0,0E0,0E0,0E0,0E0,0E0,0E0,0E0,0E0,0E0,0E0,0E0,0E0],"parents":[2147483647,0,0,1,1,2,2,3,3,4,4,5,5,6,6,7,7,8,8,9,9,10,10,11,11,12,12,13,13,14,14],"right_children":[2,4,6,8,10,12,14,16,18,20,22,24,26,28,30,-1,-1,-1,-1,-1,-1,-1,-1,-1,-1,-1,-1,-1,-1,-1,-1],"split_conditions":[1E0,8.4745765E-2,1E0,3.0932203E-1,1.572327E-3,5.509642E-3,3.686636E-3,4.255319E-3,5.6980057E-3,3.245283E-1,2.713441E-2,1.8903592E-3,1.044932E-3,6.1011616E1,1.7271157E-3,-6.438856E-3,-1.7219191E-2,6.0859878E-2,-6.045585E-3,-6.5389858E-3,5.0136074E-3,9.648617E-3,4.232691E-2,-8.105479E-3,6.50693E-2,1.103007E-3,1.21025264E-1,1.6481102E-1,5.4142226E-2,1.2450927E-1,6.2727802E-3],"split_indices":[455,10,448,477,55,332,26,181,471,462,430,48,274,424,118,0,0,0,0,0,0,0,0,0,0,0,0,0,0,0,0],"split_type":[0,0,0,0,0,0,0,0,0,0,0,0,0,0,0,0,0,0,0,0,0,0,0,0,0,0,0,0,0,0,0],"sum_hessian":[6.2557305E3,6.0416914E3,2.1403862E2,2.0998384E3,3.9418533E3,1.4097124E2,7.3067375E1,1.9908815E3,1.089569E2,3.0869666E3,8.548868E2,1.20738106E2,2.0233137E1,3.3848053E1,3.9219322E1,9.956106E2,9.952709E2,3.343407E1,7.5522835E1,1.6107166E3,1.47625E3,6.722157E2,1.8267108E2,1.07307816E2,1.3430294E1,6.7267857E0,1.3506351E1,3.081189E1,3.0361607E0,1.0513156E1,2.8706165E1],"tree_param":{"num_deleted":"0","num_feature":"607","num_nodes":"31","size_leaf_vector":"1"}},{"base_weights":[1.0427705E-2,-1.0558977E-1,4.5154276E-1,4.7149528E-2,-1.9130704E-1,2.0332399E-1,1.2998315E0,-7.484911E-2,2.373683E-1,-2.720905E-1,5.716869E-4,-1.18622124E-1,4.9407995E-1,8.9841837E-1,2.262886E0,-9.843498E-3,1.5509446E-2,7.704876E-3,5.5813085E-2,-1.4122176E-2,6.1837263E-2,-1.4897415E-2,7.342607E-3,-1.5678745E-2,8.554511E-3,8.285848E-3,4.329545E-2,6.7012005E-2,1.3415525E-2,1.252487E-1,-2.533331E-2],"categories":[],"categories_nodes":[],"categories_segments":[],"categories_sizes":[],"default_left":[0,0,0,0,0,0,0,0,0,0,0,0,0,0,0,0,0,0,0,0,0,0,0,0,0,0,0,0,0,0,0],"id":3,"left_children":[1,3,5,7,9,11,13,15,17,19,21,23,25,27,29,-1,-1,-1,-1,-1,-1,-1,-1,-1,-1,-1,-1,-1,-1,-1,-1],"loss_changes":[3.1374396E2,6.3559532E1,2.6854346E2,4.052821E1,4.8196968E1,9.261966E1,1.09614685E2,5.0064854E1,4.976678E1,3.4529922E1,4.031514E1,2.6602016E1,6.3317917E1,5.6850967E1,5.779419E1,0E0,0E0,0E0,0E0,0E0,0E0,0E0,0E0,0E0,0E0,0E0,0E0,0E0,0E0,0E0,0E0],"parents":[2147483647,0,0,1,1,2,2,3,3,4,4,5,5,6,6,7,7,8,8,9,9,10,10,11,11,12,12,13,13,14,14],"right_children":[2,4,6,8,10,12,14,16,18,20,22,24,26,28,30,-1,-1,-1,-1,-1,-1,-1,-1,-1,-1,-1,-1,-1,-1,-1,-1],"split_conditions":[3.0659026E-1,3.1935483E-1,7.9465E4,3.1347962E-3,3.5460992E-3,2.7210884E-2,1.545595E-3,1.0004765E0,9.628611E-3,2.8767124E-1,2.1806853E-2,3.5778175E-3,1.8939395E-3,2.2675737E-3,3.121748E-3,-9.843498E-3,1.5509446E-2,7.704876E-3,5.5813085E-2,-1.4122176E-2,6.1837263E-2,-1.4897415E-2,7.342607E-3,-1.5678745E-2,8.554511E-3,8.285848E-3,4.329545E-2,6.7012005E-2,1.3415525E-2,1.252487E-1,-2.533331E-2],"split_indices":[432,431,428,266,476,20,259,429,209,556,20,28,34,194,55,0,0,0,0,0,0,0,0,0,0,0,0,0,0,0,0],"split_type":[0,0,0,0,0,0,0,0,0,0,0,0,0,0,0,0,0,0,0,0,0,0,0,0,0,0,0,0,0,0,0],"sum_hessian":[6.1286274E3,4.853002E3,1.2756252E3,1.7446559E3,3.1083462E3,9.878183E2,2.8780695E2,1.0633029E3,6.8135297E2,2.1871213E3,9.212249E2,4.690472E2,5.187711E2,2.0450119E2,8.330578E1,8.0779614E2,2.5550673E2,6.234587E2,5.7894287E1,2.1730237E3,1.4097572E1,3.0262003E2,6.1860486E2,2.803274E2,1.887198E2,2.7625522E2,2.4251587E2,1.195486E2,8.495258E1,7.669717E1,6.6086063E0],"tree_param":{"num_deleted":"0","num_feature":"607","num_nodes":"31","size_leaf_vector":"1"}},{"base_weights":[1.6573831E-2,-1.6137503E-1,2.3523012E-1,-3.63429E-1,2.5337745E-2,4.8909155E-1,1.0964361E-1,-3.844021E-1,1.4831645E0,4.311547E-3,2.0677025E0,3.458723E-1,1.1931247E0,7.950981E-2,1.3213253E0,-2.2809567E-2,6.015209E-3,-2.5851835E-2,1.4897747E-1,-2.818532E-3,3.5275128E-2,-2.3968367E-2,1.489024E-1,3.479248E-2,8.468875E-4,1.5200815E-2,9.052343E-2,2.986215E-3,9.844463E-2,-2.7597347E-2,1.2726872E-1],"categories":[],"categories_nodes":[],"categories_segments":[],"categories_sizes":[],"default_left":[0,0,0,0,0,0,0,0,0,0,0,0,0,0,0,0,0,0,0,0,0,0,0,0,0,0,0,0,0,0,0],"id":4,"left_children":[1,3,5,7,9,11,13,15,17,19,21,23,25,27,29,-1,-1,-1,-1,-1,-1,-1,-1,-1,-1,-1,-1,-1,-1,-1,-1],"loss_changes":[2.4026445E2,1.2844452E2,8.827554E1,6.389566E1,7.601404E1,9.201726E1,6.762058E1,5.8662186E1,5.711682E1,7.464141E1,4.325167E1,8.783989E1,8.427832E1,6.7578674E1,1.0446465E2,0E0,0E0,0E0,0E0,0E0,0E0,0E0,0E0,0E0,0E0,0E0,0E0,0E0,0E0,0E0,0E0],"parents":[2147483647,0,0,1,1,2,2,3,3,4,4,5,5,6,6,7,7,8,8,9,9,10,10,11,11,12,12,13,13,14,14],"right_children":[2,4,6,8,10,12,14,16,18,20,22,24,26,28,30,-1,-1,-1,-1,-1,-1,-1,-1,-1,-1,-1,-1,-1,-1,-1,-1],"split_conditions":[7.913669E-2,2.4813896E-3,2.5E-3,6.386861E-3,8.571428E-3,2.4271845E-3,1.6129032E-2,1.2365E5,3.8240917E-3,5.524862E-3,6.6246055E-2,2.95858E-3,2.1367522E-3,2.5104603E-2,4.310345E-3,-2.2809567E-2,6.015209E-3,-2.5851835E-2,1.4897747E-1,-2.818532E-3,3.5275128E-2,-2.3968367E-2,1.489024E-1,3.479248E-2,8.468875E-4,1.5200815E-2,9.052343E-2,2.986215E-3,9.844463E-2,-2.7597347E-2,1.2726872E-1],"split_indices":[1,476,33,238,419,420,350,427,69,157,4,306,264,310,205,0,0,0,0,0,0,0,0,0,0,0,0,0,0,0,0],"split_type":[0,0,0,0,0,0,0,0,0,0,0,0,0,0,0,0,0,0,0,0,0,0,0,0,0,0,0,0,0,0,0],"sum_hessian":[6.1729585E3,3.403419E3,2.7695396E3,1.6341034E3,1.7693154E3,9.156811E2,1.8538584E3,1.616535E3,1.7568317E1,1.7522778E3,1.7037632E1,7.6213385E2,1.5354723E2,1.8099126E3,4.394582E1,1.415317E3,2.0121805E2,7.7985535E0,9.769764E0,1.6135576E3,1.3872023E2,4.6107006E0,1.2426932E1,3.6871542E2,3.9341843E2,6.3535244E1,9.0011986E1,1.7921766E3,1.7735964E1,1.758421E1,2.636161E1],"tree_param":{"num_deleted":"0","num_feature":"607","num_nodes":"31","size_leaf_vector":"1"}},{"base_weights":[2.5930086E-2,-9.775191E-2,3.5150608E-1,-1.5608786E-1,2.810193E-1,-3.9994264E-1,4.6597004E-1,-1.8826516E-1,5.635266E-1,-2.888933E-1,6.422724E-1,-4.5821148E-1,1.2444712E-1,6.9296676E-1,-1.1885429E-2,-1.2004743E-2,1.2720043E-2,6.2121224E-2,-2.8709272E-2,-1.9885806E-2,9.730272E-2,8.4919184E-2,1.3435423E-2,-2.5911966E-2,1.06946126E-1,2.4409834E-2,6.687916E-2,9.427403E-2,-7.693916E-3],"categories":[],"categories_nodes":[],"categories_segments":[],"categories_sizes":[],"default_left":[0,0,0,0,0,0,0,0,0,0,0,0,0,0,0,0,0,0,0,0,0,0,0,0,0,0,0,0,0],"id":5,"left_children":[1,3,5,7,9,11,13,15,17,19,21,23,-1,25,27,-1,-1,-1,-1,-1,-1,-1,-1,-1,-1,-1,-1,-1,-1],"loss_changes":[2.524049E2,1.0041862E2,1.4861354E2,9.126951E1,1.2507773E2,3.962887E1,1.6249597E2,8.654089E1,1.3106154E2,5.818013E1,1.4614365E2,3.6181355E1,0E0,1.3340048E2,1.3052518E2,0E0,0E0,0E0,0E0,0E0,0E0,0E0,0E0,0E0,0E0,0E0,0E0,0E0,0E0],"parents":[2147483647,0,0,1,1,2,2,3,3,4,4,5,5,6,6,7,7,8,8,9,9,10,10,11,11,13,13,14,14],"right_children":[2,4,6,8,10,12,14,16,18,20,22,24,-1,26,28,-1,-1,-1,-1,-1,-1,-1,-1,-1,-1,-1,-1,-1,-1],"split_conditions":[6.756757E-3,7.3891627E-3,9.925373E-1,3.5842294E-3,2.624672E-3,1.4440433E-2,3.236246E-3,9.779952E-3,2.7855153E-3,4.0983604E-3,4.1841003E-3,1.3574661E-2,1.2444712E-1,6.153846E-3,1.8939395E-2,-1.2004743E-2,1.2720043E-2,6.2121224E-2,-2.8709272E-2,-1.9885806E-2,9.730272E-2,8.4919184E-2,1.3435423E-2,-2.5911966E-2,1.06946126E-1,2.4409834E-2,6.687916E-2,9.427403E-2,-7.693916E-3],"split_indices":[89,369,575,151,66,371,25,66,372,159,19,418,0,348,12,0,0,0,0,0,0,0,0,0,0,0,0,0,0],"split_type":[0,0,0,0,0,0,0,0,0,0,0,0,0,0,0,0,0,0,0,0,0,0,0,0,0,0,0,0,0],"sum_hessian":[6.2662905E3,4.5416704E3,1.7246205E3,3.936052E3,6.056181E2,2.2764584E2,1.4969746E3,3.7682927E3,1.6775946E2,2.3503206E2,3.7058603E2,2.2396976E2,3.6760836E0,1.01457074E3,4.8240387E2,3.3737354E3,3.945573E2,1.0500727E2,6.2752197E1,2.2490324E2,1.01288185E1,9.590483E1,2.7468118E2,2.1969244E2,4.2773204E0,7.713117E2,2.4325899E2,3.2733047E1,4.4967084E2],"tree_param":{"num_deleted":"0","num_feature":"607","num_nodes":"29","size_leaf_vector":"1"}},{"base_weights":[3.8061636E-3,3.2095551E-1,-3.408641E-1,-3.5991296E-1,5.479966E-1,-3.5327828E-1,2.2147655E0,-4.783831E-1,1.8428378E0,2.542593E-2,8.325935E-1,-1.651752E-1,-5.193072E-1,-2.2875955E-2,1.5735474E-1,-2.6447345E-2,6.0425725E-2,1.4713393E-1,-2.7079402E-2,-6.849014E-3,6.779756E-2,8.641726E-3,5.9699655E-2,2.2038275E-2,-1.4416546E-2,-2.7220657E-2,1.0244936E-1],"categories":[],"categories_nodes":[],"categories_segments":[],"categories_sizes":[],"default_left":[0,0,0,0,0,0,0,0,0,0,0,0,0,0,0,0,0,0,0,0,0,0,0,0,0,0,0],"id":6,"left_children":[1,3,5,7,9,11,13,15,17,19,21,23,25,-1,-1,-1,-1,-1,-1,-1,-1,-1,-1,-1,-1,-1,-1],"loss_changes":[6.8008514E2,5.0106903E2,9.5370605E1,2.1248293E2,3.6141003E2,9.260187E1,3.7690376E1,6.633984E1,1.10664276E2,1.8556673E2,3.749359E2,1.0407193E2,1.0273236E2,0E0,0E0,0E0,0E0,0E0,0E0,0E0,0E0,0E0,0E0,0E0,0E0,0E0,0E0],"parents":[2147483647,0,0,1,1,2,2,3,3,4,4,5,5,6,6,7,7,8,8,9,9,10,10,11,11,12,12],"right_children":[2,4,6,8,10,12,14,16,18,20,22,24,26,-1,-1,-1,-1,-1,-1,-1,-1,-1,-1,-1,-1,-1,-1],"split_conditions":[1.18704E-2,2.1904762E-1,2.6685392E-2,9.708738E-3,1.8181819E-1,1.1976048E-2,1.6806724E-2,7.6923077E-3,1.996008E-3,8.976661E-3,-3.6261398E-1,9.72973E-1,1E-2,-2.2875955E-2,1.5735474E-1,-2.6447345E-2,6.0425725E-2,1.4713393E-1,-2.7079402E-2,-6.849014E-3,6.779756E-2,8.641726E-3,5.9699655E-2,2.2038275E-2,-1.4416546E-2,-2.7220657E-2,1.0244936E-1],"split_indices":[445,568,88,375,549,592,181,345,96,376,425,606,402,0,0,0,0,0,0,0,0,0,0,0,0,0,0],"split_type":[0,0,0,0,0,0,0,0,0,0,0,0,0,0,0,0,0,0,0,0,0,0,0,0,0,0,0],"sum_hessian":[6.2195063E3,3.2391042E3,2.9804023E3,8.098569E2,2.4292473E3,2.9668523E3,1.3549971E1,7.692664E2,4.059048E1,8.569055E2,1.5723418E3,1.3918948E3,1.5749576E3,3.636407E0,9.913564E0,7.475456E2,2.1720814E1,2.7617504E1,1.2972979E1,7.6448785E2,9.241767E1,5.5699274E2,1.01534906E3,2.3467702E2,1.1572178E3,1.5604913E3,1.4466299E1],"tree_param":{"num_deleted":"0","num_feature":"607","num_nodes":"27","size_leaf_vector":"1"}},{"base_weights":[2.0668167E-3,1.2765329E0,-9.816837E-2,2.4623811E0,8.471003E-1,-1.9763881E-1,8.819198E-1,2.6026742E0,6.07364E-1,1.9970846E0,6.479898E-1,5.919727E-1,-2.5890195E-1,2.0282037E0,5.9923583E-1,1.3411592E-1,2.108646E-2,9.651576E-2,-2.0458741E-2,1.12834625E-1,7.967467E-3,2.6293686E-2,1.1084198E-1,1.1658794E-1,2.4807822E-2,1.7514044E-2,-1.5440031E-2,1.4866772E-1,8.009757E-2,1.69342E-2,7.434635E-2],"categories":[],"categories_nodes":[],"categories_segments":[],"categories_sizes":[],"default_left":[0,0,0,0,0,0,0,0,0,0,0,0,0,0,0,0,0,0,0,0,0,0,0,0,0,0,0,0,0,0,0],"id":7,"left_children":[1,3,5,7,9,11,13,15,17,19,21,23,25,27,29,-1,-1,-1,-1,-1,-1,-1,-1,-1,-1,-1,-1,-1,-1,-1,-1],"loss_changes":[7.9260693E2,2.2829425E2,5.609509E2,2.9583374E1,7.510307E1,2.5280963E2,1.705842E2,1.8153625E1,1.3867101E1,2.2904526E1,5.360504E1,6.1582092E1,1.4746295E2,3.732257E1,9.819278E1,0E0,0E0,0E0,0E0,0E0,0E0,0E0,0E0,0E0,0E0,0E0,0E0,0E0,0E0,0E0,0E0],"parents":[2147483647,0,0,1,1,2,2,3,3,4,4,5,5,6,6,7,7,8,8,9,9,10,10,11,11,12,12,13,13,14,14],"right_children":[2,4,6,8,10,12,14,16,18,20,22,24,26,28,30,-1,-1,-1,-1,-1,-1,-1,-1,-1,-1,-1,-1,-1,-1,-1,-1],"split_conditions":[3.6516854E-1,2.342E4,5.7142857E-3,6.25E-3,2.5038859E-2,2.2065727E-1,2.300195E-1,9.090909E-3,4.4444446E-3,1E0,5.052083E-1,5.602241E-2,4.0572792E-2,2.4663677E-2,2.713441E-2,1.3411592E-1,2.108646E-2,9.651576E-2,-2.0458741E-2,1.12834625E-1,7.967467E-3,2.6293686E-2,1.1084198E-1,1.1658794E-1,2.4807822E-2,1.7514044E-2,-1.5440031E-2,1.4866772E-1,8.009757E-2,1.69342E-2,7.434635E-2],"split_indices":[586,428,555,62,430,589,589,67,347,455,565,423,6,20,430,0,0,0,0,0,0,0,0,0,0,0,0,0,0,0,0],"split_type":[0,0,0,0,0,0,0,0,0,0,0,0,0,0,0,0,0,0,0,0,0,0,0,0,0,0,0,0,0,0,0],"sum_hessian":[6.202555E3,4.513984E2,5.7511567E3,1.1874855E2,3.3264987E2,5.2219707E3,5.2918634E2,1.1002446E2,8.7240925E0,4.776249E1,2.8488736E2,3.7535913E2,4.8466113E3,1.03464165E2,4.2572217E2,1.05926346E2,4.0981126E0,3.4001439E0,5.323949E0,4.1650723E1,6.1117654E0,2.655525E2,1.9334871E1,1.83752E1,3.5698395E2,3.6647827E2,4.4801333E3,3.0300898E1,7.316327E1,3.301881E2,9.5534065E1],"tree_param":{"num_deleted":"0","num_feature":"607","num_nodes":"31","size_leaf_vector":"1"}},{"base_weights":[-1.1160871E-2,-1.1201763E-1,4.278967E-1,6.206218E-3,-3.516107E-1,-2.7552933E-1,6.197078E-1,1.1964181E-1,-1.6883956E-1,-3.9725098E-1,3.4985405E-1,-3.8136926E-1,1.942557E0,1.5808596E-1,8.61086E-1,-1.4806372E-2,9.299389E-3,-9.656612E-3,4.8988458E-2,-2.1282852E-2,2.3693075E-2,-1.7531811E-4,8.834529E-2,-2.0973055E-2,1.1662191E-1,-2.1968707E-2,1.4227077E-1,-7.1719065E-3,3.6303878E-2,8.713903E-3,5.585103E-2],"categories":[],"categories_nodes":[],"categories_segments":[],"categories_sizes":[],"default_left":[0,0,0,0,0,0,0,0,0,0,0,0,0,0,0,0,0,0,0,0,0,0,0,0,0,0,0,0,0,0,0],"id":8,"left_children":[1,3,5,7,9,11,13,15,17,19,21,23,25,27,29,-1,-1,-1,-1,-1,-1,-1,-1,-1,-1,-1,-1,-1,-1,-1,-1],"loss_changes":[2.772735E2,1.4423047E2,1.5798857E2,6.77392E1,5.3999924E1,5.9737244E1,1.0230499E2,5.7154694E1,3.761949E1,3.9299957E1,5.1734848E1,2.585979E1,2.6216629E1,5.4376457E1,1.0588281E2,0E0,0E0,0E0,0E0,0E0,0E0,0E0,0E0,0E0,0E0,0E0,0E0,0E0,0E0,0E0,0E0],"parents":[2147483647,0,0,1,1,2,2,3,3,4,4,5,5,6,6,7,7,8,8,9,9,10,10,11,11,12,12,13,13,14,14],"right_children":[2,4,6,8,10,12,14,16,18,20,22,24,26,28,30,-1,-1,-1,-1,-1,-1,-1,-1,-1,-1,-1,-1,-1,-1,-1,-1],"split_conditions":[1E0,3.8917527E-1,4.1463414E-1,3.8314175E-3,2.7359782E-3,7.905139E-3,1.8450185E-3,3.167421E-2,8.230452E-3,5.235602E-3,5.154639E-3,6.5789474E-3,3.3955858E-3,2.020202E-3,3.4129694E-2,-1.4806372E-2,9.299389E-3,-9.656612E-3,4.8988458E-2,-2.1282852E-2,2.3693075E-2,-1.7531811E-4,8.834529E-2,-2.0973055E-2,1.1662191E-1,-2.1968707E-2,1.4227077E-1,-7.1719065E-3,3.6303878E-2,8.713903E-3,5.585103E-2],"split_indices":[448,482,586,76,359,178,164,444,153,267,40,411,183,367,444,0,0,0,0,0,0,0,0,0,0,0,0,0,0,0,0],"split_type":[0,0,0,0,0,0,0,0,0,0,0,0,0,0,0,0,0,0,0,0,0,0,0,0,0,0,0,0,0,0,0],"sum_hessian":[6.2594683E3,5.0907964E3,1.1686718E3,3.4094333E3,1.681363E3,2.5030296E2,9.1836884E2,2.0689805E3,1.3404529E3,1.5790566E3,1.0230648E2,2.3969362E2,1.0609344E1,3.1589426E2,6.0247455E2,2.842448E2,1.7847356E3,1.3135045E3,2.6948309E1,1.5296865E3,4.9370056E1,8.268533E1,1.9621147E1,2.372095E2,2.4841087E0,3.0571876E0,7.552156E0,2.068391E2,1.0905517E2,1.6401541E2,4.3845914E2],"tree_param":{"num_deleted":"0","num_feature":"607","num_nodes":"31","size_leaf_vector":"1"}},{"base_weights":[-1.966793E-3,-3.187631E-2,8.6496913E-1,-7.395065E-2,3.3964294E-1,1.6102779E0,2.3582255E-2,-1.6519855E-1,8.739703E-2,6.751037E-1,-5.769295E-2,2.1429214E0,6.95231E-1,-2.274699E-1,8.402504E-1,-1.2249982E-2,-1.5395931E-3,2.1747032E-3,3.388359E-2,2.049415E-2,7.309472E-2,-1.1656205E-2,2.6718274E-2,1.3205902E-1,5.1741518E-2,8.583867E-2,-6.796308E-3,-1.50876E-2,9.661885E-2,-1.2467051E-2,1.1105048E-1],"categories":[],"categories_nodes":[],"categories_segments":[],"categories_sizes":[],"default_left":[0,0,0,0,0,0,0,0,0,0,0,0,0,0,0,0,0,0,0,0,0,0,0,0,0,0,0,0,0,0,0],"id":9,"left_children":[1,3,5,7,9,11,13,15,17,19,21,23,25,27,29,-1,-1,-1,-1,-1,-1,-1,-1,-1,-1,-1,-1,-1,-1,-1,-1],"loss_changes":[1.613965E2,9.407563E1,1.3013524E2,7.959769E1,8.1646904E1,5.21532E1,2.039054E1,3.7030334E1,5.059107E1,6.869177E1,2.933162E1,3.5410522E1,3.5872368E1,1.2799303E1,3.5725452E1,0E0,0E0,0E0,0E0,0E0,0E0,0E0,0E0,0E0,0E0,0E0,0E0,0E0,0E0,0E0,0E0],"parents":[2147483647,0,0,1,1,2,2,3,3,4,4,5,5,6,6,7,7,8,8,9,9,10,10,11,11,12,12,13,13,14,14],"right_children":[2,4,6,8,10,12,14,16,18,20,22,24,26,28,30,-1,-1,-1,-1,-1,-1,-1,-1,-1,-1,-1,-1,-1,-1,-1,-1],"split_conditions":[1E0,2.8790787E-3,8.700468E-3,3.2594234E-1,1.52207E-2,3.322259E-3,2.9761905E-3,4.184622E1,1.029E5,1.814882E-3,2.994012E-3,3.968254E-3,3.4561405E-1,5.7807594E4,2.8169013E-3,-1.2249982E-2,-1.5395931E-3,2.1747032E-3,3.388359E-2,2.049415E-2,7.309472E-2,-1.1656205E-2,2.6718274E-2,1.3205902E-1,5.1741518E-2,8.583867E-2,-6.796308E-3,-1.50876E-2,9.661885E-2,-1.2467051E-2,1.1105048E-1],"split_indices":[455,55,445,462,445,318,340,424,427,262,120,66,433,421,476,0,0,0,0,0,0,0,0,0,0,0,0,0,0,0,0],"split_type":[0,0,0,0,0,0,0,0,0,0,0,0,0,0,0,0,0,0,0,0,0,0,0,0,0,0,0,0,0,0,0],"sum_hessian":[6.22234E3,6.0157583E3,2.06582E2,5.4045024E3,6.112558E2,1.0906093E2,9.7521065E1,3.4521587E3,1.9523435E3,3.3105515E2,2.8020065E2,6.8086365E1,4.0974564E1,7.514285E1,2.2378218E1,2.1655735E3,1.2865853E3,1.8181857E3,1.3415784E2,2.4873093E2,8.232422E1,2.1662065E2,6.358001E1,4.6012894E1,2.2073473E1,1.7903975E1,2.3070587E1,7.347613E1,1.6667224E0,1.2965911E1,9.412307E0],"tree_param":{"num_deleted":"0","num_feature":"607","num_nodes":"31","size_leaf_vector":"1"}},{"base_weights":[9.111631E-3,-9.7962774E-2,4.5693642E-1,-1.624773E-1,5.2136235E-2,2.1483016E-1,1.2240117E0,-7.7087834E-2,-3.250004E-1,4.211407E-1,-1.5685244E-2,-8.127028E-2,4.795186E-1,1.7601367E0,6.74335E-1,-1.4343706E-2,-1.1386375E-4,-1.6751768E-2,7.9237744E-2,1.0519085E-2,5.8720507E-2,-1.9276517E-3,6.502383E-2,-5.7866364E-3,7.232505E-2,1.0758552E-2,4.7772765E-2,5.8176786E-2,1.2334174E-1,1.7753074E-2,9.4610095E-2],"categories":[],"categories_nodes":[],"categories_segments":[],"categories_sizes":[],"default_left":[0,0,0,0,0,0,0,0,0,0,0,0,0,0,0,0,0,0,0,0,0,0,0,0,0,0,0,0,0,0,0],"id":10,"left_children":[1,3,5,7,9,11,13,15,17,19,21,23,25,27,29,-1,-1,-1,-1,-1,-1,-1,-1,-1,-1,-1,-1,-1,-1,-1,-1],"loss_changes":[2.9695602E2,4.840719E1,2.2166531E2,4.8489143E1,3.762641E1,7.132277E1,8.323514E1,3.598706E1,2.3600311E1,3.6810734E1,3.8297726E1,2.2814953E1,6.0232697E1,5.801245E1,5.4958282E1,0E0,0E0,0E0,0E0,0E0,0E0,0E0,0E0,0E0,0E0,0E0,0E0,0E0,0E0,0E0,0E0],"parents":[2147483647,0,0,1,1,2,2,3,3,4,4,5,5,6,6,7,7,8,8,9,9,10,10,11,11,12,12,13,13,14,14],"right_children":[2,4,6,8,10,12,14,16,18,20,22,24,26,28,30,-1,-1,-1,-1,-1,-1,-1,-1,-1,-1,-1,-1,-1,-1,-1,-1],"split_conditions":[3.083451E-1,3.5587188E-3,7.976E4,2.9411766E-1,1.6832553E-2,2.7459955E-2,5.965559E0,2.6006904E-1,3.254818E-1,5.253623E-1,2.9166666E-1,1.2711864E-2,2.5839794E-3,1.3736264E-3,2.5125628E-3,-1.4343706E-2,-1.1386375E-4,-1.6751768E-2,7.9237744E-2,1.0519085E-2,5.8720507E-2,-1.9276517E-3,6.502383E-2,-5.7866364E-3,7.232505E-2,1.0758552E-2,4.7772765E-2,5.8176786E-2,1.2334174E-1,1.7753074E-2,9.4610095E-2],"split_indices":[567,602,427,589,445,20,422,567,509,531,547,163,34,259,339,0,0,0,0,0,0,0,0,0,0,0,0,0,0,0,0],"split_type":[0,0,0,0,0,0,0,0,0,0,0,0,0,0,0,0,0,0,0,0,0,0,0,0,0,0,0,0,0,0,0],"sum_hessian":[6.191028E3,4.997026E3,1.194002E3,3.4948225E3,1.5022031E3,9.085296E2,2.8547238E2,2.2920542E3,1.2027684E3,2.3242282E2,1.2697804E3,4.291467E2,4.793829E2,1.4340283E2,1.4206956E2,6.017558E2,1.6902983E3,1.1973016E3,5.4667373E0,1.826094E2,4.981342E1,1.2490493E3,2.0731026E1,4.205837E2,8.563002E0,3.09134E2,1.702489E2,7.919343E1,6.42094E1,1.13584114E2,2.8485443E1],"tree_param":{"num_deleted":"0","num_feature":"607","num_nodes":"31","size_leaf_vector":"1"}},{"base_weights":[3.7342682E-3,-2.3636353E-1,2.2789577E-1,-6.430746E-2,-4.180344E-1,1.1269693E-1,5.482562E-1,-2.241521E-1,2.8920352E-1,-4.540592E-1,9.933549E-1,2.0234567E-1,-3.3927172E-1,-1.4353326E-1,6.986644E-1,-1.5435E-2,1.2828155E-2,-1.909612E-3,4.539466E-2,5.999246E-3,-2.5726119E-2,-2.7423933E-2,1.15442686E-1,5.912909E-3,3.708094E-2,-2.0399269E-2,1.1199992E-1,-1.2841532E-2,1.2505403E-1,1.7611599E-2,6.0499568E-2],"categories":[],"categories_nodes":[],"categories_segments":[],"categories_sizes":[],"default_left":[0,0,0,0,0,0,0,0,0,0,0,0,0,0,0,0,0,0,0,0,0,0,0,0,0,0,0,0,0,0,0],"id":11,"left_children":[1,3,5,7,9,11,13,15,17,19,21,23,25,27,29,-1,-1,-1,-1,-1,-1,-1,-1,-1,-1,-1,-1,-1,-1,-1,-1],"loss_changes":[3.3177896E2,9.3010315E1,1.1759393E2,8.651284E1,7.405434E1,9.512986E1,8.780827E1,4.2920357E1,9.661254E1,4.907907E1,7.498046E1,8.871898E1,6.980444E1,4.5996815E1,1.2225491E2,0E0,0E0,0E0,0E0,0E0,0E0,0E0,0E0,0E0,0E0,0E0,0E0,0E0,0E0,0E0,0E0],"parents":[2147483647,0,0,1,1,2,2,3,3,4,4,5,5,6,6,7,7,8,8,9,9,10,10,11,11,12,12,13,13,14,14],"right_children":[2,4,6,8,10,12,14,16,18,20,22,24,26,28,30,-1,-1,-1,-1,-1,-1,-1,-1,-1,-1,-1,-1,-1,-1,-1,-1],"split_conditions":[7.343412E-2,4.579465E4,2.570694E-3,2.9605264E-2,3.875969E-3,2.6980197E-1,1.3778706E-1,5.4862842E-2,4.77327E-3,2.9919586E1,2.444988E-3,9.771987E-3,9.646302E-3,1E0,6.1728396E-3,-1.5435E-2,1.2828155E-2,-1.909612E-3,4.539466E-2,5.999246E-3,-2.5726119E-2,-2.7423933E-2,1.15442686E-1,5.912909E-3,3.708094E-2,-2.0399269E-2,1.1199992E-1,-1.2841532E-2,1.2505403E-1,1.7611599E-2,6.0499568E-2],"split_indices":[1,421,307,7,395,569,527,20,183,424,150,29,65,455,204,0,0,0,0,0,0,0,0,0,0,0,0,0,0,0,0],"split_type":[0,0,0,0,0,0,0,0,0,0,0,0,0,0,0,0,0,0,0,0,0,0,0,0,0,0,0,0,0,0,0],"sum_hessian":[6.162525E3,2.975468E3,3.1870571E3,1.5288682E3,1.4465999E3,2.345123E3,8.4193414E2,1.0530731E3,4.7579495E2,1.4112567E3,3.5343155E1,1.9574181E3,3.877049E2,1.5036934E2,6.915648E2,8.958666E2,1.5720659E2,3.1175824E2,1.6403673E2,1.3438692E2,1.2768698E3,1.6540216E1,1.8802938E1,1.6944293E3,2.6298883E2,3.7846414E2,9.240738E0,1.4505783E2,5.311508E0,4.1326187E2,2.7830292E2],"tree_param":{"num_deleted":"0","num_feature":"607","num_nodes":"31","size_leaf_vector":"1"}},{"base_weights":[1.4507462E-2,5.935828E-1,-5.3067468E-2,-2.5911774E-2,9.6779203E-1,-8.70749E-2,5.2887183E-1,-4.1756862E-1,8.013271E-1,2.1995824E-2,1.5706629E0,-3.440188E-1,-6.0252426E-3,2.6618138E-1,2.5939417E0,-2.901502E-2,6.2179606E-2,8.540707E-2,-2.8332938E-2,-1.8341629E-2,8.075047E-2,-1.1840166E-2,9.603027E-2,-1.9939283E-2,2.8955175E-2,6.6242754E-3,-9.221072E-3,9.714182E-2,1.9575162E-3,-2.4921376E-2,1.6232981E-1],"categories":[],"categories_nodes":[],"categories_segments":[],"categories_sizes":[],"default_left":[0,0,0,0,0,0,0,0,0,0,0,0,0,0,0,0,0,0,0,0,0,0,0,0,0,0,0,0,0,0,0],"id":12,"left_children":[1,3,5,7,9,11,13,15,17,19,21,23,25,27,29,-1,-1,-1,-1,-1,-1,-1,-1,-1,-1,-1,-1,-1,-1,-1,-1],"loss_changes":[2.4540144E2,1.519479E2,1.11190765E2,8.060879E1,2.3293616E2,1.1051555E2,1.6759436E2,4.6354996E1,1.0015228E2,9.974034E1,1.5827454E2,6.4567184E1,9.973715E1,1.051071E2,7.2042984E1,0E0,0E0,0E0,0E0,0E0,0E0,0E0,0E0,0E0,0E0,0E0,0E0,0E0,0E0,0E0,0E0],"parents":[2147483647,0,0,1,1,2,2,3,3,4,4,5,5,6,6,7,7,8,8,9,9,10,10,11,11,12,12,13,13,14,14],"right_children":[2,4,6,8,10,12,14,16,18,20,22,24,26,28,30,-1,-1,-1,-1,-1,-1,-1,-1,-1,-1,-1,-1,-1,-1,-1,-1],"split_conditions":[7.0652175E-1,1.3020834E-3,7.017544E-3,7.7828056E-1,2.562814E-1,2.4908425E-1,9.433962E-3,8.9552235E-3,2.8379965E-1,3.90625E-3,1.7985612E-3,4.945055E-2,1.39442235E-2,1.21212125E-1,3.533569E-3,-2.901502E-2,6.2179606E-2,8.540707E-2,-2.8332938E-2,-1.8341629E-2,8.075047E-2,-1.1840166E-2,9.603027E-2,-1.9939283E-2,2.8955175E-2,6.6242754E-3,-9.221072E-3,9.714182E-2,1.9575162E-3,-2.4921376E-2,1.6232981E-1],"split_indices":[545,404,404,584,561,589,373,220,439,297,186,466,2,591,61,0,0,0,0,0,0,0,0,0,0,0,0,0,0,0,0],"split_type":[0,0,0,0,0,0,0,0,0,0,0,0,0,0,0,0,0,0,0,0,0,0,0,0,0,0,0,0,0,0,0],"sum_hessian":[6.269478E3,6.5434674E2,5.615131E3,2.4676456E2,4.075822E2,5.305914E3,3.092172E2,1.6781001E2,7.8954544E1,1.5906859E2,2.4851361E2,1.2715614E3,4.0343525E3,2.7532318E2,3.3894024E1,1.5343024E2,1.4379773E1,4.733099E1,3.1623554E1,1.2847876E2,3.0589828E1,4.036261E1,2.08151E2,1.2008835E3,7.067782E1,2.2712002E3,1.7631525E3,3.193337E1,2.4338982E2,5.947974E0,2.7946049E1],"tree_param":{"num_deleted":"0","num_feature":"607","num_nodes":"31","size_leaf_vector":"1"}},{"base_weights":[9.163884E-3,2.8807107E-1,-2.9867056E-1,-3.8512074E-3,8.886511E-1,-4.196595E-1,-5.6759264E-2,-3.5414228E-1,5.0849015E-1,1.0569012E0,-4.168444E-1,-4.387323E-1,1.9825103E0,-4.1431734E-1,2.798218E-1,-1.9788986E-2,7.37726E-2,4.090956E-2,-1.0593342E-2,3.2785434E-2,7.81959E-2,-2.8944088E-2,1.3672064E-1,-2.336705E-2,6.0608413E-2,-2.3813335E-2,1.4639683E-1,-2.6780862E-2,5.340792E-2,5.259579E-3,1.0273919E-1],"categories":[],"categories_nodes":[],"categories_segments":[],"categories_sizes":[],"default_left":[0,0,0,0,0,0,0,0,0,0,0,0,0,0,0,0,0,0,0,0,0,0,0,0,0,0,0,0,0,0,0],"id":13,"left_children":[1,3,5,7,9,11,13,15,17,19,21,23,25,27,29,-1,-1,-1,-1,-1,-1,-1,-1,-1,-1,-1,-1,-1,-1,-1,-1],"loss_changes":[5.380166E2,5.7640466E2,8.715985E1,3.974011E2,2.366391E2,9.183737E1,1.197717E2,1.007708E2,2.0077556E2,1.9279663E2,6.46362E1,9.364151E1,3.817299E1,8.7338524E1,1.5871599E2,0E0,0E0,0E0,0E0,0E0,0E0,0E0,0E0,0E0,0E0,0E0,0E0,0E0,0E0,0E0,0E0],"parents":[2147483647,0,0,1,1,2,2,3,3,4,4,5,5,6,6,7,7,8,8,9,9,10,10,11,11,12,12,13,13,14,14],"right_children":[2,4,6,8,10,12,14,16,18,20,22,24,26,28,30,-1,-1,-1,-1,-1,-1,-1,-1,-1,-1,-1,-1,-1,-1,-1,-1],"split_conditions":[1.18704E-2,2.1847507E-1,9.880952E-1,7.063712E-2,4.1544884E-1,1E-2,9.9523807E-1,1.369863E-2,2.6129428E-1,7.619048E-1,1.4634146E-2,2.4236864E1,1.4492754E-2,1.1111111E-2,5.91716E-3,-1.9788986E-2,7.37726E-2,4.090956E-2,-1.0593342E-2,3.2785434E-2,7.81959E-2,-2.8944088E-2,1.3672064E-1,-2.336705E-2,6.0608413E-2,-2.3813335E-2,1.4639683E-1,-2.6780862E-2,5.340792E-2,5.259579E-3,1.0273919E-1],"split_indices":[445,464,564,18,504,402,596,203,588,495,217,426,308,186,414,0,0,0,0,0,0,0,0,0,0,0,0,0,0,0,0],"split_type":[0,0,0,0,0,0,0,0,0,0,0,0,0,0,0,0,0,0,0,0,0,0,0,0,0,0,0,0,0,0,0],"sum_hessian":[6.2644062E3,3.2866592E3,2.9777468E3,2.2123176E3,1.0743416E3,1.9844929E3,9.93254E2,1.3141403E3,8.9817737E2,9.518581E2,1.22483505E2,1.9696714E3,1.4821485E1,4.8150687E2,5.1174716E2,1.2856652E3,2.8475153E1,6.280331E2,2.701443E2,5.3266437E2,4.1919373E2,1.172698E2,5.2137003E0,1.9368248E3,3.28466E1,4.254088E0,1.0567396E1,4.45679E2,3.582788E1,4.6687296E2,4.4874187E1],"tree_param":{"num_deleted":"0","num_feature":"607","num_nodes":"31","size_leaf_vector":"1"}},{"base_weights":[4.6989275E-3,1.0349683E0,-1.106188E-1,1.3793223E0,4.6710005E-1,-2.1369329E-1,8.039469E-1,1.0966386E0,2.299367E0,1.1997129E0,2.7574655E-1,4.9453926E-1,-2.727971E-1,1.9425852E0,5.319043E-1,2.5635337E-2,8.0176674E-2,1.248998E-1,1.3712575E-2,4.7014516E-2,1.24560334E-1,-3.2273058E-3,3.2338794E-2,5.5346556E-2,1.3695066E-2,7.863732E-2,-1.4194644E-2,1.0619994E-1,-6.6887373E-3,1.4492023E-2,6.689036E-2],"categories":[],"categories_nodes":[],"categories_segments":[],"categories_sizes":[],"default_left":[0,0,0,0,0,0,0,0,0,0,0,0,0,0,0,0,0,0,0,0,0,0,0,0,0,0,0,0,0,0,0],"id":14,"left_children":[1,3,5,7,9,11,13,15,17,19,21,23,25,27,29,-1,-1,-1,-1,-1,-1,-1,-1,-1,-1,-1,-1,-1,-1,-1,-1],"loss_changes":[7.3366705E2,1.2091058E2,5.237045E2,9.798663E1,3.2776554E1,2.0909265E2,1.7327554E2,8.724472E1,3.5483734E1,1.3944351E1,2.3848164E1,5.1697342E1,9.480917E1,4.1018982E1,8.8487564E1,0E0,0E0,0E0,0E0,0E0,0E0,0E0,0E0,0E0,0E0,0E0,0E0,0E0,0E0,0E0,0E0],"parents":[2147483647,0,0,1,1,2,2,3,3,4,4,5,5,6,6,7,7,8,8,9,9,10,10,11,11,12,12,13,13,14,14],"right_children":[2,4,6,8,10,12,14,16,18,20,22,24,26,28,30,-1,-1,-1,-1,-1,-1,-1,-1,-1,-1,-1,-1,-1,-1,-1,-1],"split_conditions":[3.7465563E-1,4.0884724E0,5.5555557E-3,1.505382E-2,4.0053405E-2,2.2065727E-1,2.300195E-1,4.7538322E1,1.0752688E-2,5.5555557E-3,4.0816326E-2,3.9946678E0,2.746615E-1,1.4018691E-2,2.713441E-2,2.5635337E-2,8.0176674E-2,1.248998E-1,1.3712575E-2,4.7014516E-2,1.24560334E-1,-3.2273058E-3,3.2338794E-2,5.5346556E-2,1.3695066E-2,7.863732E-2,-1.4194644E-2,1.0619994E-1,-6.6887373E-3,1.4492023E-2,6.689036E-2],"split_indices":[586,458,497,446,6,589,589,424,345,194,14,458,433,360,430,0,0,0,0,0,0,0,0,0,0,0,0,0,0,0,0],"split_type":[0,0,0,0,0,0,0,0,0,0,0,0,0,0,0,0,0,0,0,0,0,0,0,0,0,0,0,0,0,0,0],"sum_hessian":[6.1732524E3,6.206126E2,5.55264E3,3.8544858E2,2.3516403E2,4.990914E3,5.617257E2,2.965313E2,8.8917274E1,4.7611156E1,1.8755287E2,3.8385593E2,4.607058E3,1.0714173E2,4.54584E2,1.3872946E2,1.5780185E2,8.0762375E1,8.154903E0,4.1086227E1,6.5249305E0,9.8259445E1,8.929343E1,1.0060493E2,2.83251E2,2.6691921E1,4.580366E3,9.851172E1,8.63001E0,3.5062784E2,1.0395617E2],"tree_param":{"num_deleted":"0","num_feature":"607","num_nodes":"31","size_leaf_vector":"1"}},{"base_weights":[-6.1060344E-3,-1.0642811E-1,4.365176E-1,-4.1667002E-1,-1.6735448E-2,-4.7655612E-1,5.6333613E-1,-4.2848134E-1,1.6218945E0,-3.1527305E-1,4.3814674E-2,-5.43234E-1,8.5697114E-2,8.399117E-1,2.0562673E-1,-2.1823488E-2,8.459189E-2,-1.9533718E-2,1.2884066E-1,8.4371656E-2,-1.67381E-2,-2.4314956E-3,1.5868632E-2,-2.8894195E-2,7.514163E-2,7.799365E-2,3.134925E-2,-8.1335515E-4,6.7258894E-2],"categories":[],"categories_nodes":[],"categories_segments":[],"categories_sizes":[],"default_left":[0,0,0,0,0,0,0,0,0,0,0,0,0,0,0,0,0,0,0,0,0,0,0,0,0,0,0,0,0],"id":15,"left_children":[1,3,5,7,9,11,13,15,17,19,21,23,-1,25,27,-1,-1,-1,-1,-1,-1,-1,-1,-1,-1,-1,-1,-1,-1],"loss_changes":[2.7708908E2,1.4154622E2,1.3377971E2,2.816359E1,7.136521E1,2.1547737E1,1.0003192E2,1.9963608E1,1.4038094E1,2.6547813E1,8.302612E1,1.0633945E1,0E0,8.653693E1,1.1203069E2,0E0,0E0,0E0,0E0,0E0,0E0,0E0,0E0,0E0,0E0,0E0,0E0,0E0,0E0],"parents":[2147483647,0,0,1,1,2,2,3,3,4,4,5,5,6,6,7,7,8,8,9,9,10,10,11,11,13,13,14,14],"right_children":[2,4,6,8,10,12,14,16,18,20,22,24,-1,26,28,-1,-1,-1,-1,-1,-1,-1,-1,-1,-1,-1,-1,-1,-1],"split_conditions":[1E0,3.258427E-1,3.112245E-1,8.035714E-2,6.054796E-3,7.168459E-3,2.5059156E-2,1.3333334E-2,4.040404E-3,9.842932E-1,9.5735526E-1,2.9810298E-2,8.5697114E-2,2.2686568E-1,2.8011205E-3,-2.1823488E-2,8.459189E-2,-1.9533718E-2,1.2884066E-1,8.4371656E-2,-1.67381E-2,-2.4314956E-3,1.5868632E-2,-2.8894195E-2,7.514163E-2,7.799365E-2,3.134925E-2,-8.1335515E-4,6.7258894E-2],"split_indices":[448,461,433,13,446,247,430,46,120,491,459,201,0,530,371,0,0,0,0,0,0,0,0,0,0,0,0,0,0],"split_type":[0,0,0,0,0,0,0,0,0,0,0,0,0,0,0,0,0,0,0,0,0,0,0,0,0,0,0,0,0],"sum_hessian":[6.2380073E3,5.086007E3,1.1520004E3,1.1398127E3,3.9461943E3,1.4015416E2,1.0118462E3,1.134032E3,5.780692E0,6.647062E2,3.2814883E3,1.3674374E2,3.4104192E0,5.698774E2,4.419688E2,1.1305667E3,3.4653273E0,2.050332E0,3.7303598E0,5.5812964E0,6.591249E2,2.4532676E3,8.2822064E2,1.3517218E2,1.5715631E0,1.2862764E2,4.4124973E2,3.7076E2,7.12088E1],"tree_param":{"num_deleted":"0","num_feature":"607","num_nodes":"29","size_leaf_vector":"1"}},{"base_weights":[7.681179E-3,-2.336352E-2,8.241318E-1,-1.8308987E-1,7.537682E-2,2.357118E-1,1.7339481E0,-8.368634E-2,-3.6500302E-1,3.645044E-2,5.3751E-1,1.6430367E0,-9.372575E-3,1.9150283E0,9.357941E-2,-1.0934426E-2,6.791666E-3,-2.1949291E-2,-9.967888E-3,4.6694498E-3,-1.2726269E-2,4.119631E-2,-4.707189E-5,-1.2701514E-2,1.3109662E-1,-9.272773E-3,5.8414865E-2,1.1667472E-1,4.925597E-2,-2.5837908E-2,8.588082E-2],"categories":[],"categories_nodes":[],"categories_segments":[],"categories_sizes":[],"default_left":[0,0,0,0,0,0,0,0,0,0,0,0,0,0,0,0,0,0,0,0,0,0,0,0,0,0,0,0,0,0,0],"id":16,"left_children":[1,3,5,7,9,11,13,15,17,19,21,23,25,27,29,-1,-1,-1,-1,-1,-1,-1,-1,-1,-1,-1,-1,-1,-1,-1,-1],"loss_changes":[1.5523389E2,9.3071144E1,1.1969594E2,4.0734848E1,6.558693E1,4.740422E1,2.5946167E1,4.3270622E1,9.670906E0,5.576998E1,4.3684845E1,3.851936E1,2.468803E1,2.8504242E1,1.0596744E1,0E0,0E0,0E0,0E0,0E0,0E0,0E0,0E0,0E0,0E0,0E0,0E0,0E0,0E0,0E0,0E0],"parents":[2147483647,0,0,1,1,2,2,3,3,4,4,5,5,6,6,7,7,8,8,9,9,10,10,11,11,12,12,13,13,14,14],"right_children":[2,4,6,8,10,12,14,16,18,20,22,24,26,28,30,-1,-1,-1,-1,-1,-1,-1,-1,-1,-1,-1,-1,-1,-1,-1,-1],"split_conditions":[1E0,8.737864E-2,7.4906364E-2,4.1786745E-2,1.1744157E1,5.194805E-3,8.810572E-3,1.5521064E-2,6.921241E-2,4.24581E-1,2.2457626E-1,1.5197569E-3,6.1728396E-3,4.032258E-1,8.928572E-3,-1.0934426E-2,6.791666E-3,-2.1949291E-2,-9.967888E-3,4.6694498E-3,-1.2726269E-2,4.119631E-2,-4.707189E-5,-1.2701514E-2,1.3109662E-1,-9.272773E-3,5.8414865E-2,1.1667472E-1,4.925597E-2,-2.5837908E-2,8.588082E-2],"split_indices":[455,10,16,560,426,560,76,2,8,461,547,313,155,586,338,0,0,0,0,0,0,0,0,0,0,0,0,0,0,0,0],"split_type":[0,0,0,0,0,0,0,0,0,0,0,0,0,0,0,0,0,0,0,0,0,0,0,0,0,0,0,0,0,0,0],"sum_hessian":[6.1227188E3,5.8993726E3,2.2334622E2,2.2533726E3,3.646E3,1.3639342E2,8.6952805E1,1.4580852E3,7.952873E2,3.3637441E3,2.8225592E2,1.9383783E1,1.17009636E2,7.815756E1,8.795244E0,9.028476E2,5.5523755E2,5.486095E2,2.4667781E2,2.8138123E3,5.499318E2,1.8390302E2,9.835291E1,6.8497286E0,1.2534054E1,1.0252311E2,1.4486529E1,5.286053E1,2.5297031E1,6.8883176E0,1.9069268E0],"tree_param":{"num_deleted":"0","num_feature":"607","num_nodes":"31","size_leaf_vector":"1"}},{"base_weights":[-4.912082E-3,5.4700446E-1,-6.528013E-2,1.2062371E0,2.0080827E-1,-1.5911737E-1,4.279266E-2,1.4118898E0,-3.4952E-1,-1.4783846E-1,5.550812E-1,4.5857366E-2,-2.5236094E-1,8.0173026E-4,5.647375E-1,-2.113889E-2,8.124631E-2,-2.7935654E-2,6.64769E-2,-1.6157497E-2,3.0465914E-2,4.8668664E-2,-3.8914823E-3,2.9928464E-4,9.686043E-2,3.6275387E-2,-1.3462834E-2,-2.544566E-3,1.3203757E-2,5.909257E-2,1.0686395E-2],"categories":[],"categories_nodes":[],"categories_segments":[],"categories_sizes":[],"default_left":[0,0,0,0,0,0,0,0,0,0,0,0,0,0,0,0,0,0,0,0,0,0,0,0,0,0,0,0,0,0,0],"id":17,"left_children":[1,3,5,7,9,11,13,15,17,19,21,23,25,27,29,-1,-1,-1,-1,-1,-1,-1,-1,-1,-1,-1,-1,-1,-1,-1,-1],"loss_changes":[2.075753E2,1.3994568E2,5.6957783E1,6.809967E1,4.9976517E1,5.746525E1,5.721827E1,7.3710724E1,9.689954E0,2.7326183E1,5.3174778E1,7.093159E1,3.43347E1,3.2911636E1,4.185545E1,0E0,0E0,0E0,0E0,0E0,0E0,0E0,0E0,0E0,0E0,0E0,0E0,0E0,0E0,0E0,0E0],"parents":[2147483647,0,0,1,1,2,2,3,3,4,4,5,5,6,6,7,7,8,8,9,9,10,10,11,11,12,12,13,13,14,14],"right_children":[2,4,6,8,10,12,14,16,18,20,22,24,26,28,30,-1,-1,-1,-1,-1,-1,-1,-1,-1,-1,-1,-1,-1,-1,-1,-1],"split_conditions":[3.75E-1,1.0067114E-2,6.311637E-2,3.9550266E-1,1.1627907E-2,2.81E2,1.0978E5,7.18232E-2,4.149378E-3,2.232143E-3,1.2307692E-2,2.0560747E-2,1.9767442E-1,1E0,9.9873096E-1,-2.113889E-2,8.124631E-2,-2.7935654E-2,6.64769E-2,-1.6157497E-2,3.0465914E-2,4.8668664E-2,-3.8914823E-3,2.9928464E-4,9.686043E-2,3.6275387E-2,-1.3462834E-2,-2.544566E-3,1.3203757E-2,5.909257E-2,1.0686395E-2],"split_indices":[565,550,16,502,19,0,427,423,102,295,492,169,572,449,596,0,0,0,0,0,0,0,0,0,0,0,0,0,0,0,0],"split_type":[0,0,0,0,0,0,0,0,0,0,0,0,0,0,0,0,0,0,0,0,0,0,0,0,0,0,0,0,0,0,0],"sum_hessian":[6.22803E3,6.132562E2,5.6147734E3,2.1030522E2,4.0295102E2,3.0050671E3,2.6097063E3,1.858328E2,2.4472431E1,2.033818E2,1.9956921E2,9.3974963E2,2.0653174E3,2.4163132E3,1.9339302E2,1.9230993E1,1.666018E2,2.2354534E1,2.1178958E0,1.6560983E2,3.7771965E1,1.1983323E2,7.973598E1,9.213302E2,1.8419445E1,3.436643E1,2.0309509E3,2.0204165E3,3.9589685E2,6.925973E1,1.241333E2],"tree_param":{"num_deleted":"0","num_feature":"607","num_nodes":"31","size_leaf_vector":"1"}},{"base_weights":[-1.2818538E-3,-2.0443211E-1,2.432621E-1,-2.1618521E-1,1.887461E0,-2.1222547E-1,3.6703104E-1,-2.5339422E-1,4.20901E-1,-2.3534035E-2,1.2980908E-1,-2.8873983E-1,1.0637761E0,6.182907E-1,1.5990141E-1,-1.4657068E-2,8.672061E-3,6.3684206E-3,1.00478224E-1,1.1666483E-1,-1.5944954E-2,-4.839479E-3,1.2881064E-1,2.7903501E-2,1.0636359E-1,3.717246E-2,3.507327E-3],"categories":[],"categories_nodes":[],"categories_segments":[],"categories_sizes":[],"default_left":[0,0,0,0,0,0,0,0,0,0,0,0,0,0,0,0,0,0,0,0,0,0,0,0,0,0,0],"id":18,"left_children":[1,3,5,7,9,11,13,15,17,-1,-1,19,21,23,25,-1,-1,-1,-1,-1,-1,-1,-1,-1,-1,-1,-1],"loss_changes":[3.120503E2,8.47643E1,1.6076273E2,8.100743E1,3.3430595E1,5.9828575E1,1.16562775E2,5.476564E1,8.773912E1,0E0,0E0,4.6289036E1,6.116189E1,9.082623E1,6.437402E1,0E0,0E0,0E0,0E0,0E0,0E0,0E0,0E0,0E0,0E0,0E0,0E0],"parents":[2147483647,0,0,1,1,2,2,3,3,4,4,5,5,6,6,7,7,8,8,11,11,12,12,13,13,14,14],"right_children":[2,4,6,8,10,12,14,16,18,-1,-1,20,22,24,26,-1,-1,-1,-1,-1,-1,-1,-1,-1,-1,-1,-1],"split_conditions":[7.913669E-2,8.571428E-3,2.322357E-1,6.153846E-3,6.6246055E-2,1.7621145E-2,7.142857E-3,5E-3,1.0869565E-2,-2.3534035E-2,1.2980908E-1,1.8570102E-3,7.556675E-3,7.7220076E-3,4.6796116E-1,-1.4657068E-2,8.672061E-3,6.3684206E-3,1.00478224E-1,1.1666483E-1,-1.5944954E-2,-4.839479E-3,1.2881064E-1,2.7903501E-2,1.0636359E-1,3.717246E-2,3.507327E-3],"split_indices":[1,419,593,413,4,130,210,127,218,0,0,581,61,153,536,0,0,0,0,0,0,0,0,0,0,0,0],"split_type":[0,0,0,0,0,0,0,0,0,0,0,0,0,0,0,0,0,0,0,0,0,0,0,0,0,0,0],"sum_hessian":[6.2793105E3,3.4300364E3,2.849274E3,3.4117644E3,1.8272017E1,6.086478E2,2.240626E3,3.2240652E3,1.8769925E2,4.300093E0,1.3971923E1,5.749454E2,3.370241E1,1.0115614E3,1.2290647E3,2.9497007E3,2.7436438E2,1.5933885E2,2.8360392E1,5.669555E0,5.692758E2,1.9599089E1,1.4103321E1,9.740583E2,3.750307E1,1.6287009E2,1.0661946E3],"tree_param":{"num_deleted":"0","num_feature":"607","num_nodes":"27","size_leaf_vector":"1"}},{"base_weights":[7.156604E-5,-1.03109464E-1,2.9251608E-1,2.581078E-1,-1.7710452E-1,5.3099502E-2,5.916345E-1,5.2732706E-2,9.50634E-1,-2.1398836E-1,4.4892538E-1,-4.9940698E-2,1.0728394E0,1.1183166E-1,9.6169037E-1,-7.134739E-3,4.8892148E-2,-1.6103223E-2,7.500988E-2,-1.1189291E-2,9.3179904E-2,6.332024E-2,-1.6405098E-2,-5.1755565E-3,8.972367E-2,-2.8189177E-2,9.468022E-2,-1.8550614E-2,4.4255074E-2,4.4998745E-3,7.135546E-2],"categories":[],"categories_nodes":[],"categories_segments":[],"categories_sizes":[],"default_left":[0,0,0,0,0,0,0,0,0,0,0,0,0,0,0,0,0,0,0,0,0,0,0,0,0,0,0,0,0,0,0],"id":19,"left_children":[1,3,5,7,9,11,13,15,17,19,21,23,25,27,29,-1,-1,-1,-1,-1,-1,-1,-1,-1,-1,-1,-1,-1,-1,-1,-1],"loss_changes":[1.8890938E2,1.2373743E2,1.168978E2,1.1191414E2,8.879841E1,9.545984E1,1.2875809E2,1.10100555E2,1.2638046E2,7.427469E1,1.3638817E2,8.176166E1,1.1306088E2,1.18746376E2,1.6605627E2,0E0,0E0,0E0,0E0,0E0,0E0,0E0,0E0,0E0,0E0,0E0,0E0,0E0,0E0,0E0,0E0],"parents":[2147483647,0,0,1,1,2,2,3,3,4,4,5,5,6,6,7,7,8,8,9,9,10,10,11,11,12,12,13,13,14,14],"right_children":[2,4,6,8,10,12,14,16,18,20,22,24,26,28,30,-1,-1,-1,-1,-1,-1,-1,-1,-1,-1,-1,-1,-1,-1,-1,-1],"split_conditions":[7.0422534E-3,4.4207722E-1,9.946808E-1,7.194245E-3,8.042895E-3,8.073818E-3,1.3315579E-3,8.547009E-3,2.1321962E-3,1.2738854E-2,1.7985612E-3,1.4492754E-2,5.0199205E-1,2.0661156E-3,2.2883294E-3,-7.134739E-3,4.8892148E-2,-1.6103223E-2,7.500988E-2,-1.1189291E-2,9.3179904E-2,6.332024E-2,-1.6405098E-2,-5.1755565E-3,8.972367E-2,-2.8189177E-2,9.468022E-2,-1.8550614E-2,4.4255074E-2,4.4998745E-3,7.135546E-2],"split_indices":[89,604,554,128,77,194,317,88,29,31,357,306,583,355,85,0,0,0,0,0,0,0,0,0,0,0,0,0,0,0,0],"split_type":[0,0,0,0,0,0,0,0,0,0,0,0,0,0,0,0,0,0,0,0,0,0,0,0,0,0,0,0,0,0,0],"sum_hessian":[6.2585176E3,4.626745E3,1.6317727E3,7.8621875E2,3.8405261E3,9.069894E2,7.247834E2,6.0721857E2,1.790002E2,3.6274646E3,2.1306143E2,8.246165E2,8.2372826E1,3.1616107E2,4.086223E2,5.020148E2,1.0520375E2,5.4108295E1,1.2489191E2,3.6113267E3,1.6137964E1,1.0352115E2,1.0954028E2,8.0225903E2,2.2357485E1,2.7617014E1,5.475581E1,1.9495055E2,1.2121051E2,1.4264772E2,2.6597458E2],"tree_param":{"num_deleted":"0","num_feature":"607","num_nodes":"31","size_leaf_vector":"1"}},{"base_weights":[1.2088022E-3,-3.6237717E-1,2.1770936E-1,-3.785205E-1,2.124238E0,-3.630758E-1,4.2334667E-1,-4.347912E-1,1.6162686E-1,1.5264025E-1,-2.2987911E-2,1.7752231E0,-4.7638735E-1,6.359713E-1,-1.1418179E-1,-2.4256302E-2,7.1604946E-3,-2.8700275E-2,4.1641265E-2,-2.7212292E-2,1.3347298E-1,-2.5833732E-2,7.7563785E-2,-8.8461675E-4,4.123616E-2,-1.4607201E-2,4.3543693E-2],"categories":[],"categories_nodes":[],"categories_segments":[],"categories_sizes":[],"default_left":[0,0,0,0,0,0,0,0,0,0,0,0,0,0,0,0,0,0,0,0,0,0,0,0,0,0,0],"id":20,"left_children":[1,3,5,7,9,11,13,15,17,-1,-1,19,21,23,25,-1,-1,-1,-1,-1,-1,-1,-1,-1,-1,-1,-1],"loss_changes":[4.8627264E2,9.335507E1,4.625827E2,6.972101E1,3.7449226E1,2.4628667E2,3.269405E2,6.0456818E1,1.0758956E2,0E0,0E0,1.0762857E2,7.945155E1,2.5287854E2,1.4250815E2,0E0,0E0,0E0,0E0,0E0,0E0,0E0,0E0,0E0,0E0,0E0,0E0],"parents":[2147483647,0,0,1,1,2,2,3,3,4,4,5,5,6,6,7,7,8,8,11,11,12,12,13,13,14,14],"right_children":[2,4,6,8,10,12,14,16,18,-1,-1,20,22,24,26,-1,-1,-1,-1,-1,-1,-1,-1,-1,-1,-1,-1],"split_conditions":[3.6273164E4,2.6685392E-2,2.2134387E-1,3.5842294E-3,8.67052E-3,1.25E-2,7.794118E-1,3.4082398E-1,3.5842294E-3,1.5264025E-1,-2.2987911E-2,2.0062208E-1,1.7291067E-2,4.018088E-1,5.5045873E-2,-2.4256302E-2,7.1604946E-3,-2.8700275E-2,4.1641265E-2,-2.7212292E-2,1.3347298E-1,-2.5833732E-2,7.7563785E-2,-8.8461675E-4,4.123616E-2,-1.4607201E-2,4.3543693E-2],"split_indices":[421,88,568,394,560,12,545,589,175,0,0,485,378,586,14,0,0,0,0,0,0,0,0,0,0,0,0],"split_type":[0,0,0,0,0,0,0,0,0,0,0,0,0,0,0,0,0,0,0,0,0,0,0,0,0,0,0],"sum_hessian":[6.175511E3,2.3045798E3,3.8709314E3,2.2905571E3,1.4022702E1,1.0119884E3,2.8589429E3,2.0746248E3,2.1593239E2,1.0182251E1,3.8404508E0,5.018989E1,9.617985E2,2.0484683E3,8.104748E2,1.9085784E3,1.6604646E2,1.0309035E2,1.1284205E2,1.4074601E1,3.6115288E1,9.437917E2,1.8006836E1,4.5918335E2,1.5892848E3,6.870536E2,1.2342115E2],"tree_param":{"num_deleted":"0","num_feature":"607","num_nodes":"27","size_leaf_vector":"1"}},{"base_weights":[-1.7321069E-3,9.9224555E-1,-1.17505E-1,1.8406065E0,6.572816E-1,7.510801E-1,-2.081885E-1,2.1102004E0,9.3009585E-1,4.2233336E-1,1.3916501E0,1.3718479E0,3.2848564E-1,3.792854E-1,-2.777704E-1,1.1297234E-1,2.2741606E-2,1.974203E-2,1.0826621E-1,1.2652056E-2,6.6418625E-2,8.741637E-2,3.0265838E-2,1.0694974E-1,4.5859065E-2,5.4954477E-3,5.945412E-2,7.245784E-2,1.25404475E-2,-1.618407E-2,1.3762111E-2],"categories":[],"categories_nodes":[],"categories_segments":[],"categories_sizes":[],"default_left":[0,0,0,0,0,0,0,0,0,0,0,0,0,0,0,0,0,0,0,0,0,0,0,0,0,0,0,0,0,0,0],"id":21,"left_children":[1,3,5,7,9,11,13,15,17,19,21,23,25,27,29,-1,-1,-1,-1,-1,-1,-1,-1,-1,-1,-1,-1,-1,-1,-1,-1],"loss_changes":[7.174091E2,1.8360797E2,4.399756E2,4.3092224E1,8.013097E1,1.3808234E2,2.0681363E2,3.376483E1,2.8050587E1,5.42492E1,3.0623123E1,7.253204E1,5.9218033E1,7.330216E1,1.1489557E2,0E0,0E0,0E0,0E0,0E0,0E0,0E0,0E0,0E0,0E0,0E0,0E0,0E0,0E0,0E0,0E0],"parents":[2147483647,0,0,1,1,2,2,3,3,4,4,5,5,6,6,7,7,8,8,9,9,10,10,11,11,12,12,13,13,14,14],"right_children":[2,4,6,8,10,12,14,16,18,20,22,24,26,28,30,-1,-1,-1,-1,-1,-1,-1,-1,-1,-1,-1,-1,-1,-1,-1,-1],"split_conditions":[3.7593985E-1,2.441E4,1.9281312E4,4.0690784E0,5.1948052E-2,1.6981132E-1,1.4105263E-1,6E0,7.157359E0,3.1609195E-1,9.493379E4,2.2962964E-1,2.713441E-2,8.0729164E-2,2.8067052E-2,1.1297234E-1,2.2741606E-2,1.974203E-2,1.0826621E-1,1.2652056E-2,6.6418625E-2,8.741637E-2,3.0265838E-2,1.0694974E-1,4.5859065E-2,5.4954477E-3,5.945412E-2,7.245784E-2,1.25404475E-2,-1.618407E-2,1.3762111E-2],"split_indices":[586,427,421,458,14,549,549,452,422,588,421,509,430,549,430,0,0,0,0,0,0,0,0,0,0,0,0,0,0,0,0],"split_type":[0,0,0,0,0,0,0,0,0,0,0,0,0,0,0,0,0,0,0,0,0,0,0,0,0,0,0,0,0,0,0],"sum_hessian":[6.2322246E3,6.493768E2,5.582848E3,1.825468E2,4.6682996E2,5.270805E2,5.0557676E3,1.3982753E2,4.2719276E1,3.548705E2,1.1195945E2,2.1257436E2,3.1450616E2,5.3493207E2,4.5208354E3,1.2792867E2,1.1898854E1,3.072501E1,1.1994265E1,3.000802E2,5.4790314E1,7.618079E1,3.5778656E1,7.772556E1,1.348488E2,2.5170512E2,6.280103E1,5.6248684E1,4.7868338E2,4.17467E3,3.461655E2],"tree_param":{"num_deleted":"0","num_feature":"607","num_nodes":"31","size_leaf_vector":"1"}},{"base_weights":[-1.7705739E-3,-9.003874E-2,3.8538343E-1,-9.435971E-3,-3.9805335E-1,-3.452558E-1,5.8128804E-1,3.8897052E-2,-4.1360244E-1,-4.5398822E-1,4.9616522E-1,-4.179568E-1,1.828024E0,9.672669E-2,8.4361666E-1,-5.0361212E-3,8.505273E-3,-2.2198511E-2,4.500812E-2,-2.3161141E-2,9.001269E-2,-7.130146E-3,1.0040232E-1,-2.6663465E-2,3.1723525E-2,1.2854049E-1,-1.9175088E-2,1.5232767E-3,8.465557E-2,5.736999E-2,1.0309699E-2],"categories":[],"categories_nodes":[],"categories_segments":[],"categories_sizes":[],"default_left":[0,0,0,0,0,0,0,0,0,0,0,0,0,0,0,0,0,0,0,0,0,0,0,0,0,0,0,0,0,0,0],"id":22,"left_children":[1,3,5,7,9,11,13,15,17,19,21,23,25,27,29,-1,-1,-1,-1,-1,-1,-1,-1,-1,-1,-1,-1,-1,-1,-1,-1],"loss_changes":[2.1388062E2,1.2653044E2,1.665252E2,7.8947525E1,5.3097824E1,3.9682068E1,1.1644278E2,6.614819E1,1.7621864E1,2.1554413E1,6.0844986E1,2.9362091E1,1.4388985E1,3.4125008E1,1.1489926E2,0E0,0E0,0E0,0E0,0E0,0E0,0E0,0E0,0E0,0E0,0E0,0E0,0E0,0E0,0E0,0E0],"parents":[2147483647,0,0,1,1,2,2,3,3,4,4,5,5,6,6,7,7,8,8,9,9,10,10,11,11,12,12,13,13,14,14],"right_children":[2,4,6,8,10,12,14,16,18,20,22,24,26,28,30,-1,-1,-1,-1,-1,-1,-1,-1,-1,-1,-1,-1,-1,-1,-1,-1],"split_conditions":[1E0,2.3623446E-1,4.1463414E-1,9.7345136E-2,3.690037E-3,9.868421E-3,1.8450185E-3,1.884058E-1,9.090909E-3,1.5060241E-2,6.0606062E-2,2.8011205E-3,7.490637E-3,3.6101083E-3,7.605634E-1,-5.0361212E-3,8.505273E-3,-2.2198511E-2,4.500812E-2,-2.3161141E-2,9.001269E-2,-7.130146E-3,1.0040232E-1,-2.6663465E-2,3.1723525E-2,1.2854049E-1,-1.9175088E-2,1.5232767E-3,8.465557E-2,5.736999E-2,1.0309699E-2],"split_indices":[448,464,586,16,53,178,164,485,418,268,6,271,576,225,595,0,0,0,0,0,0,0,0,0,0,0,0,0,0,0,0],"split_type":[0,0,0,0,0,0,0,0,0,0,0,0,0,0,0,0,0,0,0,0,0,0,0,0,0,0,0,0,0,0,0],"sum_hessian":[6.256677E3,5.0956704E3,1.1610067E3,4.0395989E3,1.0560713E3,2.4531729E2,9.156894E2,3.6089226E3,4.306762E2,9.943645E2,6.1706863E1,2.3815805E2,7.1592264E0,3.2209644E2,5.9359296E2,1.7485328E3,1.8603899E3,4.215931E2,9.0831E0,9.9109894E2,3.2655616E0,4.401588E1,1.769098E1,2.150849E2,2.3073158E1,5.23761E0,1.9216164E0,3.1023846E2,1.1857988E1,4.0146338E2,1.9212956E2],"tree_param":{"num_deleted":"0","num_feature":"607","num_nodes":"31","size_leaf_vector":"1"}},{"base_weights":[2.2945064E-4,3.9978787E-1,-4.597094E-2,2.6486245E-1,1.3661268E0,-1.501135E-1,1.270858E-1,4.0311076E-2,6.432076E-1,2.3627293E-1,1.7922475E0,-2.2600299E-1,2.388287E-2,3.24431E-2,3.6668175E-1,-6.518855E-4,9.046429E-2,2.1631366E-2,8.388802E-2,-2.7481824E-2,7.427523E-2,-2.2962961E-2,9.718607E-2,-9.358288E-3,-2.1243026E-2,-1.019727E-2,1.0452691E-2,5.38278E-3,-8.863926E-3,1.4125861E-2,7.338228E-2],"categories":[],"categories_nodes":[],"categories_segments":[],"categories_sizes":[],"default_left":[0,0,0,0,0,0,0,0,0,0,0,0,0,0,0,0,0,0,0,0,0,0,0,0,0,0,0,0,0,0,0],"id":23,"left_children":[1,3,5,7,9,11,13,15,17,19,21,23,25,27,29,-1,-1,-1,-1,-1,-1,-1,-1,-1,-1,-1,-1,-1,-1,-1,-1],"loss_changes":[1.1540004E2,8.41172E1,1.0100886E2,4.8381725E1,3.768007E1,4.620475E1,4.77383E1,3.3868664E1,4.5492737E1,2.3226576E1,2.0440186E1,1.8736168E1,4.490726E1,2.3846672E1,5.482749E1,0E0,0E0,0E0,0E0,0E0,0E0,0E0,0E0,0E0,0E0,0E0,0E0,0E0,0E0,0E0,0E0],"parents":[2147483647,0,0,1,1,2,2,3,3,4,4,5,5,6,6,7,7,8,8,9,9,10,10,11,11,12,12,13,13,14,14],"right_children":[2,4,6,8,10,12,14,16,18,20,22,24,26,28,30,-1,-1,-1,-1,-1,-1,-1,-1,-1,-1,-1,-1,-1,-1,-1,-1],"split_conditions":[5.626134E-3,1E0,3.254902E-1,1.5384615E-3,1.7211704E-3,1.4144272E-3,8.560902E0,9.6296296E-2,5.787798E-1,3.3783785E-3,3.236246E-3,7.977208E-2,1.6313214E-3,4.048583E-3,9.626E4,-6.518855E-4,9.046429E-2,2.1631366E-2,8.388802E-2,-2.7481824E-2,7.427523E-2,-2.2962961E-2,9.718607E-2,-9.358288E-3,-2.1243026E-2,-1.019727E-2,1.0452691E-2,5.38278E-3,-8.863926E-3,1.4125861E-2,7.338228E-2],"split_indices":[445,455,462,50,68,202,422,8,434,121,2,560,196,406,427,0,0,0,0,0,0,0,0,0,0,0,0,0,0,0,0],"split_type":[0,0,0,0,0,0,0,0,0,0,0,0,0,0,0,0,0,0,0,0,0,0,0,0,0,0,0,0,0,0,0],"sum_hessian":[6.249444E3,6.469264E2,5.602517E3,5.687838E2,7.814256E1,3.497759E3,2.1047583E3,3.5763226E2,2.1115154E2,2.1825909E1,5.631665E1,2.435293E3,1.062466E3,1.5095908E3,5.951674E2,3.481261E2,9.506167E0,1.7661934E2,3.4532196E1,1.3741166E1,8.084743E0,3.4218802E0,5.289477E1,2.0390116E3,3.9628146E2,4.7631824E2,5.8614764E2,1.1114706E3,3.9812024E2,5.540676E2,4.1099773E1],"tree_param":{"num_deleted":"0","num_feature":"607","num_nodes":"31","size_leaf_vector":"1"}},{"base_weights":[4.051104E-3,-9.9181525E-2,4.093165E-1,6.632107E-2,-1.5255876E-1,1.6820988E-1,1.1041381E0,-8.1890985E-2,3.0748814E-1,-2.2293936E-1,8.765373E-3,-2.0718433E-1,3.062677E-1,1.8200768E0,8.476378E-1,-8.984818E-3,1.505948E-2,5.726808E-3,3.8277246E-2,-1.1492379E-2,7.079689E-2,4.8778616E-3,-1.2210495E-2,-1.4208569E-2,4.378405E-2,6.393739E-2,1.1403692E-2,1.0701972E-1,1.9893756E-2,3.4653712E-2,1.1002978E-1],"categories":[],"categories_nodes":[],"categories_segments":[],"categories_sizes":[],"default_left":[0,0,0,0,0,0,0,0,0,0,0,0,0,0,0,0,0,0,0,0,0,0,0,0,0,0,0,0,0,0,0],"id":24,"left_children":[1,3,5,7,9,11,13,15,17,19,21,23,25,27,29,-1,-1,-1,-1,-1,-1,-1,-1,-1,-1,-1,-1,-1,-1,-1,-1],"loss_changes":[2.5930234E2,4.3648014E1,2.1060884E2,4.310819E1,4.2414032E1,4.8536964E1,5.7950317E1,2.805437E1,4.0480247E1,2.9771103E1,2.5531727E1,2.1264257E1,5.173829E1,3.7680054E1,4.8744034E1,0E0,0E0,0E0,0E0,0E0,0E0,0E0,0E0,0E0,0E0,0E0,0E0,0E0,0E0,0E0,0E0],"parents":[2147483647,0,0,1,1,2,2,3,3,4,4,5,5,6,6,7,7,8,8,9,9,10,10,11,11,12,12,13,13,14,14],"right_children":[2,4,6,8,10,12,14,16,18,20,22,24,26,28,30,-1,-1,-1,-1,-1,-1,-1,-1,-1,-1,-1,-1,-1,-1,-1,-1],"split_conditions":[3.0769232E-1,3.0747923E-1,7.976E4,3.1347962E-3,3.5587188E-3,2.4535E4,1.048218E-3,1.0004765E0,9.7276265E-4,4.9668876E-3,2.5114155E-1,6.55308E-3,2.7624309E-2,7.4626864E-3,5.221932E-3,-8.984818E-3,1.505948E-2,5.726808E-3,3.8277246E-2,-1.1492379E-2,7.079689E-2,4.8778616E-3,-1.2210495E-2,-1.4208569E-2,4.378405E-2,6.393739E-2,1.1403692E-2,1.0701972E-1,1.9893756E-2,3.4653712E-2,1.1002978E-1],"split_indices":[432,431,427,266,555,428,84,429,339,282,505,200,4,353,401,0,0,0,0,0,0,0,0,0,0,0,0,0,0,0,0],"split_type":[0,0,0,0,0,0,0,0,0,0,0,0,0,0,0,0,0,0,0,0,0,0,0,0,0,0,0,0,0,0,0],"sum_hessian":[6.196007E3,4.9387275E3,1.2572792E3,1.2043259E3,3.7344016E3,9.343107E2,3.2296848E2,7.463241E2,4.580018E2,2.5998066E3,1.1345951E3,2.5108437E2,6.832264E2,8.3581535E1,2.3938693E2,5.949553E2,1.513688E2,3.2313455E2,1.3486726E2,2.58975E3,1.0056611E1,8.4027954E2,2.9431558E2,2.3510687E2,1.5977507E1,4.9704823E1,6.3352155E2,6.7805046E1,1.5776488E1,2.1620023E2,2.318671E1],"tree_param":{"num_deleted":"0","num_feature":"607","num_nodes":"31","size_leaf_vector":"1"}},{"base_weights":[9.799762E-3,-2.1051498E-1,2.0784439E-1,-4.1362062E-2,-4.0151617E-1,-1.3324556E-1,2.950341E-1,-2.0861068E-1,3.1003174E-1,-4.6475196E-1,1.6688906E-1,-2.0821986E-1,9.763196E-1,-2.55976E-1,3.7074488E-1,-1.243497E-2,3.7627082E-2,9.459413E-2,1.0386213E-2,-2.464093E-2,3.3506405E-2,-9.257381E-3,1.1702462E-1,-2.0289255E-2,1.0538985E-2,-2.7803758E-2,1.13446414E-1,-1.8111177E-2,7.203757E-2,2.9077623E-2,9.350131E-3],"categories":[],"categories_nodes":[],"categories_segments":[],"categories_sizes":[],"default_left":[0,0,0,0,0,0,0,0,0,0,0,0,0,0,0,0,0,0,0,0,0,0,0,0,0,0,0,0,0,0,0],"id":25,"left_children":[1,3,5,7,9,11,13,15,17,19,21,23,25,27,29,-1,-1,-1,-1,-1,-1,-1,-1,-1,-1,-1,-1,-1,-1,-1,-1],"loss_changes":[2.7306772E2,9.5701935E1,9.805347E1,9.2469124E1,5.008754E1,5.6076447E1,1.0960762E2,4.125673E1,8.172685E1,4.0219543E1,1.0758147E2,5.2233086E1,8.581502E1,5.779769E1,8.9305115E1,0E0,0E0,0E0,0E0,0E0,0E0,0E0,0E0,0E0,0E0,0E0,0E0,0E0,0E0,0E0,0E0],"parents":[2147483647,0,0,1,1,2,2,3,3,4,4,5,5,6,6,7,7,8,8,9,9,10,10,11,11,12,12,13,13,14,14],"right_children":[2,4,6,8,10,12,14,16,18,20,22,24,26,28,30,-1,-1,-1,-1,-1,-1,-1,-1,-1,-1,-1,-1,-1,-1,-1,-1],"split_conditions":[7.343412E-2,4.579465E4,2.319688E-1,2.8901733E-2,2.6385225E-3,9.009009E-3,4.0816325E-3,1.3888889E-2,3.2142857E-1,2.5125628E-2,2.9372936E-1,1.6977929E-3,2.3310024E-3,6.2761507E-3,7.2072074E-3,-1.243497E-2,3.7627082E-2,9.459413E-2,1.0386213E-2,-2.464093E-2,3.3506405E-2,-9.257381E-3,1.1702462E-1,-2.0289255E-2,1.0538985E-2,-2.7803758E-2,1.13446414E-1,-1.8111177E-2,7.203757E-2,2.9077623E-2,9.350131E-3],"split_indices":[1,421,593,7,407,177,534,138,436,581,582,148,69,258,210,0,0,0,0,0,0,0,0,0,0,0,0,0,0,0,0],"split_type":[0,0,0,0,0,0,0,0,0,0,0,0,0,0,0,0,0,0,0,0,0,0,0,0,0,0,0,0,0,0,0],"sum_hessian":[6.256403E3,2.9616511E3,3.2947517E3,1.5713031E3,1.390348E3,6.706423E2,2.6241094E3,1.0648743E3,5.0642886E2,1.2513196E3,1.3902849E2,6.289555E2,4.1686737E1,3.1671686E2,2.3073926E3,1.0229493E3,4.192495E1,2.9701418E1,4.7672745E2,1.2216722E3,2.9647387E1,1.204373E2,1.8591196E1,4.2744138E2,2.0151414E2,1.9334906E1,2.2351833E1,2.987932E2,1.7923647E1,1.0735469E3,1.2338457E3],"tree_param":{"num_deleted":"0","num_feature":"607","num_nodes":"31","size_leaf_vector":"1"}},{"base_weights":[1.19501585E-2,3.009563E-1,-9.3977146E-2,6.1894715E-1,4.4347025E-2,-1.5561225E-1,4.3706495E-1,2.9119757E-1,1.185141E0,-3.014082E-3,2.1119945E0,-1.6452248E-1,1.3289239E-1,2.3977977E-1,1.9340198E0,3.7364053E-4,6.715442E-2,-1.9619985E-4,8.030894E-2,-4.5557353E-3,5.872208E-2,-2.459558E-2,1.5347408E-1,-1.0509359E-2,1.3190105E-2,-2.8912714E-3,4.495927E-2,1.3074249E-1,-2.6872173E-2],"categories":[],"categories_nodes":[],"categories_segments":[],"categories_sizes":[],"default_left":[0,0,0,0,0,0,0,0,0,0,0,0,0,0,0,0,0,0,0,0,0,0,0,0,0,0,0,0,0],"id":26,"left_children":[1,3,5,7,9,11,13,15,17,19,21,23,-1,25,27,-1,-1,-1,-1,-1,-1,-1,-1,-1,-1,-1,-1,-1,-1],"loss_changes":[1.8993633E2,1.3576056E2,1.4867572E2,1.3754822E2,9.0294235E1,1.0243818E2,1.3905702E2,1.4084766E2,1.3623706E2,9.371217E1,5.298877E1,7.940688E1,0E0,8.219084E1,9.373244E1,0E0,0E0,0E0,0E0,0E0,0E0,0E0,0E0,0E0,0E0,0E0,0E0,0E0,0E0],"parents":[2147483647,0,0,1,1,2,2,3,3,4,4,5,5,6,6,7,7,8,8,9,9,10,10,11,11,13,13,14,14],"right_children":[2,4,6,8,10,12,14,16,18,20,22,24,-1,26,28,-1,-1,-1,-1,-1,-1,-1,-1,-1,-1,-1,-1,-1,-1],"split_conditions":[2.2352941E-1,4.672897E-3,8.77193E-3,3.322259E-3,1.1070111E-2,1.4440433E-2,5.988024E-3,1.1158799E-1,2.2988506E-3,2.6890758E-1,3.2258064E-3,1.5706806E-2,1.3289239E-1,2.6809652E-3,3.058104E-3,3.7364053E-4,6.715442E-2,-1.9619985E-4,8.030894E-2,-4.5557353E-3,5.872208E-2,-2.459558E-2,1.5347408E-1,-1.0509359E-2,1.3190105E-2,-2.8912714E-3,4.495927E-2,1.3074249E-1,-2.6872173E-2],"split_indices":[588,38,129,75,276,371,367,8,304,464,65,30,0,131,214,0,0,0,0,0,0,0,0,0,0,0,0,0,0],"split_type":[0,0,0,0,0,0,0,0,0,0,0,0,0,0,0,0,0,0,0,0,0,0,0,0,0,0,0,0,0],"sum_hessian":[6.2023794E3,1.6630809E3,4.5392983E3,7.420807E2,9.210003E2,4.0678704E3,4.7142804E2,4.7096814E2,2.7111255E2,9.013526E2,1.9647655E1,4.0559666E3,1.1903741E1,4.1755786E2,5.3870186E1,3.7171356E2,9.925457E1,7.11543E1,1.9995824E2,8.394641E2,6.18885E1,5.413036E0,1.423462E1,3.6656702E3,3.902964E2,2.8833694E2,1.2922092E2,4.2189854E1,1.1680329E1],"tree_param":{"num_deleted":"0","num_feature":"607","num_nodes":"29","size_leaf_vector":"1"}},{"base_weights":[-9.1651053E-4,2.4452223E-1,-2.800945E-1,-2.9736066E-1,4.792178E-1,-3.7632227E-1,1.7348707E-1,-4.462033E-1,1.2340976E0,7.7508086E-1,6.407236E-2,-3.917563E-1,1.5718255E0,9.82053E-1,-2.7150732E-1,1.3269982E-1,-2.3383727E-2,1.03989206E-1,-2.8104117E-2,-2.8995413E-2,4.5457836E-2,-1.3991254E-2,3.0870888E-2,-2.0364901E-2,6.812377E-2,-2.5409644E-2,1.4799681E-1,8.80782E-2,-2.9818348E-3,-2.5289986E-2,5.821954E-2],"categories":[],"categories_nodes":[],"categories_segments":[],"categories_sizes":[],"default_left":[0,0,0,0,0,0,0,0,0,0,0,0,0,0,0,0,0,0,0,0,0,0,0,0,0,0,0,0,0,0,0],"id":27,"left_children":[1,3,5,7,9,11,13,15,17,19,21,23,25,27,29,-1,-1,-1,-1,-1,-1,-1,-1,-1,-1,-1,-1,-1,-1,-1,-1],"loss_changes":[4.2227115E2,4.1721994E2,1.2590674E2,2.2661331E2,2.810694E2,7.214276E1,1.8207542E2,6.1457474E1,1.3501541E2,2.4328998E2,1.8161453E2,6.4923645E1,5.6067406E1,1.4593237E2,1.1049954E2,0E0,0E0,0E0,0E0,0E0,0E0,0E0,0E0,0E0,0E0,0E0,0E0,0E0,0E0,0E0,0E0],"parents":[2147483647,0,0,1,1,2,2,3,3,4,4,5,5,6,6,7,7,8,8,9,9,10,10,11,11,12,12,13,13,14,14],"right_children":[2,4,6,8,10,12,14,16,18,20,22,24,26,28,30,-1,-1,-1,-1,-1,-1,-1,-1,-1,-1,-1,-1,-1,-1,-1,-1],"split_conditions":[1.18704E-2,2.2425629E-1,3.206239E-1,8.62069E-3,1.2455516E-2,1.4218009E-2,3.508772E-3,9.5681065E-1,1.7452007E-3,2.8553298E-1,7.246377E-3,3.3557046E-2,4.750594E-3,9.5238094E-4,7.490637E-3,1.3269982E-1,-2.3383727E-2,1.03989206E-1,-2.8104117E-2,-2.8995413E-2,4.5457836E-2,-1.3991254E-2,3.0870888E-2,-2.0364901E-2,6.812377E-2,-2.5409644E-2,1.4799681E-1,8.80782E-2,-2.9818348E-3,-2.5289986E-2,5.821954E-2],"split_indices":[445,568,589,375,19,288,497,491,32,462,90,201,413,349,268,0,0,0,0,0,0,0,0,0,0,0,0,0,0,0,0],"split_type":[0,0,0,0,0,0,0,0,0,0,0,0,0,0,0,0,0,0,0,0,0,0,0,0,0,0,0,0,0,0,0],"sum_hessian":[6.160645E3,3.2784907E3,2.8821543E3,9.9073645E2,2.2877544E3,2.3778594E3,5.0429486E2,9.0362195E2,8.711452E1,1.3352736E3,9.5248083E2,2.3599617E3,1.789768E1,1.785884E2,3.2570648E2,5.3719177E0,8.9825006E2,5.9120983E1,2.7993532E1,1.1992907E2,1.2153445E3,5.8771643E2,3.6476434E2,2.339998E3,1.996352E1,7.4172206E0,1.048046E1,1.0175365E2,7.683475E1,2.8057364E2,4.5132847E1],"tree_param":{"num_deleted":"0","num_feature":"607","num_nodes":"31","size_leaf_vector":"1"}},{"base_weights":[-2.2030738E-3,1.2489587E0,-7.810997E-2,1.9186947E0,8.979218E-1,-1.7655593E-1,6.961776E-1,2.0275013E0,3.8585076E-1,1.5090817E0,5.251703E-1,-2.8035632E-1,2.393669E-1,4.4904366E-1,1.3919095E0,1.0299474E-1,-5.3386897E-4,8.631029E-2,-1.998071E-2,9.042274E-2,2.9472217E-2,1.5066611E-2,6.601779E-2,-1.6261484E-2,1.392324E-2,6.2729925E-2,7.95339E-3,5.4591775E-2,1.0061186E-2,5.5761416E-2,1.0414546E-1],"categories":[],"categories_nodes":[],"categories_segments":[],"categories_sizes":[],"default_left":[0,0,0,0,0,0,0,0,0,0,0,0,0,0,0,0,0,0,0,0,0,0,0,0,0,0,0,0,0,0,0],"id":28,"left_children":[1,3,5,7,9,11,13,15,17,19,21,23,25,27,29,-1,-1,-1,-1,-1,-1,-1,-1,-1,-1,-1,-1,-1,-1,-1,-1],"loss_changes":[5.8942676E2,8.1737366E1,4.4614185E2,1.9432068E1,5.2696213E1,2.2422406E2,1.1289615E2,7.4782104E0,1.0447291E1,2.3276657E1,2.5834229E1,1.0429605E2,8.438072E1,7.762247E1,3.0671844E1,0E0,0E0,0E0,0E0,0E0,0E0,0E0,0E0,0E0,0E0,0E0,0E0,0E0,0E0,0E0,0E0],"parents":[2147483647,0,0,1,1,2,2,3,3,4,4,5,5,6,6,7,7,8,8,9,9,10,10,11,11,12,12,13,13,14,14],"right_children":[2,4,6,8,10,12,14,16,18,20,22,24,26,28,30,-1,-1,-1,-1,-1,-1,-1,-1,-1,-1,-1,-1,-1,-1,-1,-1],"split_conditions":[3.529412E-1,2.487E4,5.5555557E-3,6.25E-3,4.522613E-2,8.196721E-2,2.530909E0,5E0,5.652174E-2,2.762431E-3,3.3333334E-3,4.028021E-1,9.94499E-1,5.4131053E-2,3.0379745E-1,1.0299474E-1,-5.3386897E-4,8.631029E-2,-1.998071E-2,9.042274E-2,2.9472217E-2,1.5066611E-2,6.601779E-2,-1.6261484E-2,1.392324E-2,6.2729925E-2,7.95339E-3,5.4591775E-2,1.0061186E-2,5.5761416E-2,1.0414546E-1],"split_indices":[586,427,497,62,8,16,426,451,6,418,253,502,429,6,467,0,0,0,0,0,0,0,0,0,0,0,0,0,0,0,0],"split_type":[0,0,0,0,0,0,0,0,0,0,0,0,0,0,0,0,0,0,0,0,0,0,0,0,0,0,0,0,0,0,0],"sum_hessian":[6.204306E3,3.5399567E2,5.8503105E3,1.2020098E2,2.337947E2,5.1910693E3,6.592409E2,1.1193288E2,8.268102E0,8.741742E1,1.4637727E2,4.154557E3,1.0365121E3,4.8766183E2,1.7157907E2,1.10171234E2,1.761638E0,2.6124334E0,5.6556683E0,6.52197E1,2.2197712E1,1.1530018E2,3.10771E1,3.8461309E3,3.0842642E2,7.490134E1,9.616108E2,1.3474817E2,3.5291367E2,1.24387405E2,4.719167E1],"tree_param":{"num_deleted":"0","num_feature":"607","num_nodes":"31","size_leaf_vector":"1"}},{"base_weights":[1.1981172E-2,-3.58317E-1,1.0378936E-1,-3.6894286E-1,1.7141513E0,2.4787886E-1,-5.711569E-2,-3.823526E-1,8.5943884E-1,-1.8320387E-2,1.2790559E-1,-7.4883522E-3,3.996724E-1,-2.4058974E-1,7.3639825E-2,-1.9480541E-2,7.852744E-2,-2.5232589E-2,1.0574365E-1,-3.0610077E-3,4.5207918E-2,4.1750535E-2,1.406164E-2,-1.3088064E-2,8.584865E-2,-7.0023634E-3,1.0537853E-2],"categories":[],"categories_nodes":[],"categories_segments":[],"categories_sizes":[],"default_left":[0,0,0,0,0,0,0,0,0,0,0,0,0,0,0,0,0,0,0,0,0,0,0,0,0,0,0],"id":29,"left_children":[1,3,5,7,9,11,13,15,17,-1,-1,19,21,23,25,-1,-1,-1,-1,-1,-1,-1,-1,-1,-1,-1,-1],"loss_changes":[2.1246619E2,2.7975784E1,1.1612149E2,2.0690613E1,1.2369656E1,1.0242293E2,5.6795933E1,1.7954239E1,2.4454536E1,0E0,0E0,4.8355E1,8.521161E1,4.127498E1,4.054169E1,0E0,0E0,0E0,0E0,0E0,0E0,0E0,0E0,0E0,0E0,0E0,0E0],"parents":[2147483647,0,0,1,1,2,2,3,3,4,4,5,5,6,6,7,7,8,8,11,11,12,12,13,13,14,14],"right_children":[2,4,6,8,10,12,14,16,18,-1,-1,20,22,24,26,-1,-1,-1,-1,-1,-1,-1,-1,-1,-1,-1,-1],"split_conditions":[3.258427E-1,1.6304348E-2,6.534653E-2,7.936508E-3,8.8691795E-3,2.690583E-2,2.3333333E-1,1.2048192E-2,5.6497175E-3,-1.8320387E-2,1.2790559E-1,2.173913E-3,2.5179856E-2,9.090909E-3,1.9102197E-3,-1.9480541E-2,7.852744E-2,-2.5232589E-2,1.0574365E-1,-3.0610077E-3,4.5207918E-2,4.1750535E-2,1.406164E-2,-1.3088064E-2,8.584865E-2,-7.0023634E-3,1.0537853E-2],"split_indices":[461,298,16,53,346,12,465,414,301,0,0,182,14,67,198,0,0,0,0,0,0,0,0,0,0,0,0],"split_type":[0,0,0,0,0,0,0,0,0,0,0,0,0,0,0,0,0,0,0,0,0,0,0,0,0,0,0],"sum_hessian":[6.2475728E3,1.240649E3,5.006924E3,1.2351383E3,5.510781E0,2.6412024E3,2.3657214E3,1.2224817E3,1.265659E1,1.7535989E0,3.757182E0,9.8502057E2,1.6561818E3,9.840617E2,1.3816597E3,1.2187526E3,3.729158E0,6.352411E0,6.3041797E0,9.310764E2,5.3944126E1,3.5292288E2,1.3032588E3,9.743897E2,9.671997E0,5.400344E2,8.4162524E2],"tree_param":{"num_deleted":"0","num_feature":"607","num_nodes":"27","size_leaf_vector":"1"}},{"base_weights":[8.628372E-4,-3.0189794E-2,9.1456944E-1,-5.8949143E-2,6.846706E-1,3.5530638E-2,1.8126886E0,-1.5586923E-1,1.4063357E-1,1.3431146E0,-9.725365E-2,1.7818712E0,-1.27634E-1,1.2322391E0,2.4494057E0,-1.1990542E-2,-3.1416507E-3,1.6656201E-3,2.0128874E-2,3.1830937E-2,8.5954286E-2,-1.2698325E-2,5.5695333E-2,-1.932605E-2,1.2285986E-1,-1.3905366E-2,8.1480116E-2,9.1247216E-2,3.745509E-3,8.320645E-3,1.2855683E-1],"categories":[],"categories_nodes":[],"categories_segments":[],"categories_sizes":[],"default_left":[0,0,0,0,0,0,0,0,0,0,0,0,0,0,0,0,0,0,0,0,0,0,0,0,0,0,0,0,0,0,0],"id":30,"left_children":[1,3,5,7,9,11,13,15,17,19,21,23,25,27,29,-1,-1,-1,-1,-1,-1,-1,-1,-1,-1,-1,-1,-1,-1,-1,-1],"loss_changes":[1.74358E2,1.2222725E2,1.5939714E2,1.1055731E2,1.1851266E2,2.9603586E1,3.3898163E1,3.002781E1,5.251152E1,3.2079178E1,2.0410383E1,1.3947838E1,2.5630838E1,3.7086433E1,1.2528992E1,0E0,0E0,0E0,0E0,0E0,0E0,0E0,0E0,0E0,0E0,0E0,0E0,0E0,0E0,0E0,0E0],"parents":[2147483647,0,0,1,1,2,2,3,3,4,4,5,5,6,6,7,7,8,8,9,9,10,10,11,11,12,12,13,13,14,14],"right_children":[2,4,6,8,10,12,14,16,18,20,22,24,26,28,30,-1,-1,-1,-1,-1,-1,-1,-1,-1,-1,-1,-1,-1,-1,-1,-1],"split_conditions":[3E0,1E0,4.5107956E1,3.632287E-1,8.736701E-3,1.904762E-2,1.9011407E-3,3.937008E-3,8.589204E0,6.090207E0,3.4754798E-1,1.4306152E-3,4.3290043E-3,1.2820513E-2,2.1905806E-3,-1.1990542E-2,-3.1416507E-3,1.6656201E-3,2.0128874E-2,3.1830937E-2,8.5954286E-2,-1.2698325E-2,5.5695333E-2,-1.932605E-2,1.2285986E-1,-1.3905366E-2,8.1480116E-2,9.1247216E-2,3.745509E-3,8.320645E-3,1.2855683E-1],"split_indices":[447,455,424,502,445,20,102,270,422,422,462,314,162,19,581,0,0,0,0,0,0,0,0,0,0,0,0,0,0,0,0],"split_type":[0,0,0,0,0,0,0,0,0,0,0,0,0,0,0,0,0,0,0,0,0,0,0,0,0,0,0,0,0,0,0],"sum_hessian":[6.143237E3,5.9422544E3,2.0098257E2,5.713321E3,2.2893347E2,1.0209557E2,9.888701E1,3.845912E3,1.8674084E3,1.2389015E2,1.0504331E2,7.876219E0,9.421935E1,5.3264694E1,4.5622314E1,2.0209446E3,1.8249677E3,1.3254747E3,5.419338E2,4.3965954E1,7.9924194E1,9.37086E1,1.1334709E1,1.9720029E0,5.904216E0,8.756301E1,6.6563435E0,3.484341E1,1.8421284E1,2.429301E0,4.3193012E1],"tree_param":{"num_deleted":"0","num_feature":"607","num_nodes":"31","size_leaf_vector":"1"}},{"base_weights":[9.032636E-3,-9.39469E-2,3.9676875E-1,5.156555E-2,-1.7702472E-1,1.8312357E-1,1.0005163E0,-2.4861723E-1,1.2405678E-1,-2.121484E-1,1.3983825E-1,-1.9215871E-1,3.1810132E-1,6.777231E-1,1.5775359E0,-1.47743365E-2,7.192027E-2,5.4089545E-4,2.0119956E-2,-1.0813727E-2,8.977299E-2,2.2865508E-2,-8.615473E-3,-1.3264695E-2,3.9366614E-2,7.636584E-3,3.545102E-2,1.915854E-2,8.1493996E-2,3.4951862E-2,1.07732035E-1],"categories":[],"categories_nodes":[],"categories_segments":[],"categories_sizes":[],"default_left":[0,0,0,0,0,0,0,0,0,0,0,0,0,0,0,0,0,0,0,0,0,0,0,0,0,0,0,0,0,0,0],"id":31,"left_children":[1,3,5,7,9,11,13,15,17,19,21,23,25,27,29,-1,-1,-1,-1,-1,-1,-1,-1,-1,-1,-1,-1,-1,-1,-1,-1],"loss_changes":[2.4910883E2,5.960276E1,1.686936E2,3.9034096E1,3.4956535E1,4.910849E1,6.2627167E1,2.8018835E1,4.552188E1,2.379374E1,3.1171791E1,1.8601704E1,4.5952805E1,6.1371956E1,6.0308655E1,0E0,0E0,0E0,0E0,0E0,0E0,0E0,0E0,0E0,0E0,0E0,0E0,0E0,0E0,0E0,0E0],"parents":[2147483647,0,0,1,1,2,2,3,3,4,4,5,5,6,6,7,7,8,8,9,9,10,10,11,11,12,12,13,13,14,14],"right_children":[2,4,6,8,10,12,14,16,18,20,22,24,26,28,30,-1,-1,-1,-1,-1,-1,-1,-1,-1,-1,-1,-1,-1,-1,-1,-1],"split_conditions":[3.0769232E-1,3.1935483E-1,7.976E4,2.580645E-1,3.968254E-3,2.4535E4,1.080402E-1,8.1875E-1,4.245283E-2,1.0067114E-2,4.716981E-3,4.255319E-3,6.27451E-2,3.8910505E-1,1.6123189E-1,-1.47743365E-2,7.192027E-2,5.4089545E-4,2.0119956E-2,-1.0813727E-2,8.977299E-2,2.2865508E-2,-8.615473E-3,-1.3264695E-2,3.9366614E-2,7.636584E-3,3.545102E-2,1.915854E-2,8.1493996E-2,3.4951862E-2,1.07732035E-1],"split_indices":[432,431,427,432,187,428,423,574,14,157,28,251,17,503,527,0,0,0,0,0,0,0,0,0,0,0,0,0,0,0,0],"split_type":[0,0,0,0,0,0,0,0,0,0,0,0,0,0,0,0,0,0,0,0,0,0,0,0,0,0,0,0,0,0,0],"sum_hessian":[6.2368794E3,4.928633E3,1.3082467E3,1.7913779E3,3.1372546E3,9.6726776E2,3.4097897E2,3.4797992E2,1.4433981E3,2.824495E3,3.1275964E2,2.5575673E2,7.1151105E2,2.2005278E2,1.209262E2,3.393761E2,8.6038265E0,1.0267295E3,4.1666864E2,2.8195923E3,4.902688E0,1.5482687E2,1.5793275E2,2.3866556E2,1.7091173E1,5.0097525E2,2.1053577E2,1.6913333E2,5.091944E1,4.8820465E1,7.2105736E1],"tree_param":{"num_deleted":"0","num_feature":"607","num_nodes":"31","size_leaf_vector":"1"}},{"base_weights":[-1.202654E-2,-2.9640535E-1,1.2097411E-1,-3.1342074E-1,1.6384618E0,2.6906082E-1,-6.6565685E-2,-4.0562192E-1,-3.1583186E-2,-2.4848368E-2,1.4140074E-1,6.2162325E-2,5.260689E-1,1.7919444E-1,-2.510977E-1,-2.406613E-2,2.0824522E-3,8.312603E-2,-5.4920367E-3,9.921425E-4,7.949858E-2,2.030798E-3,3.613655E-2,3.9886527E-2,8.816475E-4,-1.5028735E-2,3.803952E-2],"categories":[],"categories_nodes":[],"categories_segments":[],"categories_sizes":[],"default_left":[0,0,0,0,0,0,0,0,0,0,0,0,0,0,0,0,0,0,0,0,0,0,0,0,0,0,0],"id":32,"left_children":[1,3,5,7,9,11,13,15,17,-1,-1,19,21,23,25,-1,-1,-1,-1,-1,-1,-1,-1,-1,-1,-1,-1],"loss_changes":[2.3257437E2,6.502309E1,1.16375084E2,5.048253E1,4.5203182E1,1.2446507E2,8.39166E1,4.959285E1,6.383052E1,0E0,0E0,8.390726E1,9.964798E1,7.930223E1,5.313243E1,0E0,0E0,0E0,0E0,0E0,0E0,0E0,0E0,0E0,0E0,0E0,0E0],"parents":[2147483647,0,0,1,1,2,2,3,3,4,4,5,5,6,6,7,7,8,8,11,11,12,12,13,13,14,14],"right_children":[2,4,6,8,10,12,14,16,18,-1,-1,20,22,24,26,-1,-1,-1,-1,-1,-1,-1,-1,-1,-1,-1,-1],"split_conditions":[5.7279237E-2,4.222686E0,2.5141414E-2,2.3201855E-3,3.8610038E-3,2.4952741E-1,7.419355E-1,3.003003E-3,1.6346154E-1,-2.4848368E-2,1.4140074E-1,4.1841003E-3,5.2525252E-2,2.0758122E-1,7.5376886E-3,-2.406613E-2,2.0824522E-3,8.312603E-2,-5.4920367E-3,9.921425E-4,7.949858E-2,2.030798E-3,3.613655E-2,3.9886527E-2,8.816475E-4,-1.5028735E-2,3.803952E-2],"split_indices":[6,458,430,31,320,477,511,219,569,0,0,419,4,603,340,0,0,0,0,0,0,0,0,0,0,0,0],"split_type":[0,0,0,0,0,0,0,0,0,0,0,0,0,0,0,0,0,0,0,0,0,0,0,0,0,0,0],"sum_hessian":[6.147142E3,1.9584348E3,4.188707E3,1.942193E3,1.624181E1,2.340303E3,1.848404E3,1.4631083E3,4.7908472E2,6.019004E0,1.0222807E1,1.2972352E3,1.0430679E3,7.927058E2,1.0556982E3,1.2512568E3,2.1185152E2,2.0259827E1,4.588249E2,1.2632567E3,3.3978527E1,3.0107697E2,7.4199084E2,1.6335722E2,6.293486E2,1.00715564E3,4.854261E1],"tree_param":{"num_deleted":"0","num_feature":"607","num_nodes":"27","size_leaf_vector":"1"}},{"base_weights":[6.288322E-3,-1.03557706E-1,2.827351E-1,-1.3061522E-1,8.044661E-1,4.0690112E-1,-2.5386563E-1,-1.4588323E-1,1.5794533E0,1.7854688E0,-1.5715347E-1,3.1038785E-1,1.3257983E0,2.6127446E0,-4.102404E-1,1.4562758E-2,-9.891643E-3,1.2872176E-1,-2.6959939E-2,1.19752444E-1,-2.7067352E-2,9.7941354E-2,-2.8590282E-2,2.505183E-2,-4.5804637E-3,1.5995778E-2,1.05721354E-1,1.5561378E-1,-2.0550337E-2,-2.4680914E-2,9.265234E-2],"categories":[],"categories_nodes":[],"categories_segments":[],"categories_sizes":[],"default_left":[0,0,0,0,0,0,0,0,0,0,0,0,0,0,0,0,0,0,0,0,0,0,0,0,0,0,0,0,0,0,0],"id":33,"left_children":[1,3,5,7,9,11,13,15,17,19,21,23,25,27,29,-1,-1,-1,-1,-1,-1,-1,-1,-1,-1,-1,-1,-1,-1,-1,-1],"loss_changes":[1.8944742E2,1.0979758E2,1.1830208E2,1.13450066E2,1.2228432E2,1.2738878E2,1.5078171E2,9.768221E1,8.245906E1,9.221582E1,5.9229443E1,1.0009072E2,1.07734436E2,2.7578972E1,6.0841602E1,0E0,0E0,0E0,0E0,0E0,0E0,0E0,0E0,0E0,0E0,0E0,0E0,0E0,0E0,0E0,0E0],"parents":[2147483647,0,0,1,1,2,2,3,3,4,4,5,5,6,6,7,7,8,8,9,9,10,10,11,11,12,12,13,13,14,14],"right_children":[2,4,6,8,10,12,14,16,18,20,22,24,26,28,30,-1,-1,-1,-1,-1,-1,-1,-1,-1,-1,-1,-1,-1,-1,-1,-1],"split_conditions":[6.756757E-3,7.29927E-3,3.3557047E-3,2.5104603E-2,2.4533333E-1,3.207547E-1,2.9069767E-3,1.4562094E-1,7.583082E-1,2.2935779E-3,4.351852E-1,3.236246E-3,2.1598272E-3,1.4409221E-3,1.898734E-2,1.4562758E-2,-9.891643E-3,1.2872176E-1,-2.6959939E-2,1.19752444E-1,-2.7067352E-2,9.7941354E-2,-2.8590282E-2,2.505183E-2,-4.5804637E-3,1.5995778E-2,1.05721354E-1,1.5561378E-1,-2.0550337E-2,-2.4680914E-2,9.265234E-2],"split_indices":[89,131,412,310,465,506,560,437,532,183,583,25,174,96,196,0,0,0,0,0,0,0,0,0,0,0,0,0,0,0,0],"split_type":[0,0,0,0,0,0,0,0,0,0,0,0,0,0,0,0,0,0,0,0,0,0,0,0,0,0,0,0,0,0,0],"sum_hessian":[6.236717E3,4.463695E3,1.7730221E3,4.3353647E3,1.2833011E2,1.4400463E3,3.329759E2,4.2979062E3,3.7458324E1,6.3100735E1,6.522937E1,1.3043827E3,1.3566362E2,1.6411812E1,3.1656406E2,4.5602283E2,3.8418835E3,2.5341892E1,1.2116431E1,4.9978123E1,1.3122614E1,1.0077846E1,5.5151527E1,8.8460767E2,4.19775E2,6.023745E1,7.542618E1,1.4059818E1,2.3519926E0,3.0607056E2,1.0493517E1],"tree_param":{"num_deleted":"0","num_feature":"607","num_nodes":"31","size_leaf_vector":"1"}},{"base_weights":[9.236056E-3,2.839215E-1,-2.7644208E-1,5.2921265E-1,-2.0408212E-1,-3.4796867E-1,2.761245E-1,5.406264E-2,7.7327484E-1,-3.6618388E-1,9.839401E-1,-3.6086693E-1,1.0887849E0,7.9828763E-1,-2.8708268E-2,-2.0015975E-3,1.3900483E-1,-2.8773079E-2,4.533848E-2,-2.1237496E-2,5.866101E-2,-2.8354391E-2,8.666511E-2,-2.025525E-2,4.2422833E-3,-2.6528252E-2,1.3060823E-1,6.2841855E-2,-2.8601272E-2],"categories":[],"categories_nodes":[],"categories_segments":[],"categories_sizes":[],"default_left":[0,0,0,0,0,0,0,0,0,0,0,0,0,0,0,0,0,0,0,0,0,0,0,0,0,0,0,0,0],"id":34,"left_children":[1,3,5,7,9,11,13,15,17,19,21,23,25,27,-1,-1,-1,-1,-1,-1,-1,-1,-1,-1,-1,-1,-1,-1,-1],"loss_changes":[4.8819318E2,3.7976273E2,1.2062714E2,2.4476123E2,2.048139E2,5.043866E1,1.558868E2,1.8413603E2,2.516106E2,8.478724E1,1.494503E2,5.2823578E1,6.127483E1,1.3726198E2,0E0,0E0,0E0,0E0,0E0,0E0,0E0,0E0,0E0,0E0,0E0,0E0,0E0,0E0,0E0],"parents":[2147483647,0,0,1,1,2,2,3,3,4,4,5,5,6,6,7,7,8,8,9,9,10,10,11,11,12,12,13,13],"right_children":[2,4,6,8,10,12,14,16,18,20,22,24,26,28,-1,-1,-1,-1,-1,-1,-1,-1,-1,-1,-1,-1,-1,-1,-1],"split_conditions":[9.339944E-3,2.6129428E-1,3.3050847E-1,3.5650623E-3,2.80543E-1,1.4218009E-2,1.7777778E-2,2.4267782E-1,-5.549801E-1,1.0989011E-2,2.361516E-1,9.67118E-3,4.784689E-3,3.7593986E-3,-2.8708268E-2,-2.0015975E-3,1.3900483E-1,-2.8773079E-2,4.533848E-2,-2.1237496E-2,5.866101E-2,-2.8354391E-2,8.666511E-2,-2.025525E-2,4.2422833E-3,-2.6528252E-2,1.3060823E-1,6.2841855E-2,-2.8601272E-2],"split_indices":[446,588,589,98,589,288,576,547,425,138,568,278,62,36,0,0,0,0,0,0,0,0,0,0,0,0,0,0,0],"split_type":[0,0,0,0,0,0,0,0,0,0,0,0,0,0,0,0,0,0,0,0,0,0,0,0,0,0,0,0,0],"sum_hessian":[6.219269E3,3.1706396E3,3.0486294E3,2.109987E3,1.0606527E3,2.6995576E3,3.4907193E2,7.164313E2,1.3935557E3,9.3391486E2,1.2673786E2,2.6762805E3,2.3277142E1,2.16302E2,1.3276994E2,6.9347974E2,2.2951546E1,1.2521023E2,1.2683455E3,9.003842E2,3.3530693E1,4.1364647E1,8.5373215E1,2.4347197E3,2.4156068E2,1.1599069E1,1.1678073E1,1.6213081E2,5.4171192E1],"tree_param":{"num_deleted":"0","num_feature":"607","num_nodes":"29","size_leaf_vector":"1"}},{"base_weights":[-1.3692417E-3,7.4302655E-1,-1.2905332E-1,1.4968401E0,4.791693E-1,-2.2051793E-1,6.632697E-1,1.801987E0,9.991495E-1,2.4681304E-1,1.0357621E0,3.430368E-1,-2.8875792E-1,1.2229233E0,2.366336E-1,9.37114E-2,1.3323051E-2,8.012029E-2,2.154254E-2,9.141117E-3,7.864359E-2,7.489156E-2,3.30971E-2,6.3209966E-2,1.1242612E-2,1.0280999E-2,-1.7053362E-2,9.341273E-2,4.1978788E-2,7.5520396E-2,5.6830915E-3],"categories":[],"categories_nodes":[],"categories_segments":[],"categories_sizes":[],"default_left":[0,0,0,0,0,0,0,0,0,0,0,0,0,0,0,0,0,0,0,0,0,0,0,0,0,0,0,0,0,0,0],"id":35,"left_children":[1,3,5,7,9,11,13,15,17,19,21,23,25,27,29,-1,-1,-1,-1,-1,-1,-1,-1,-1,-1,-1,-1,-1,-1,-1,-1],"loss_changes":[5.913674E2,1.8047113E2,3.8502066E2,3.399768E1,8.7200745E1,1.8322984E2,1.3100401E2,1.5571899E1,3.0794205E1,4.0306404E1,3.3355774E1,5.576012E1,1.0993024E2,5.7215057E1,4.889663E1,0E0,0E0,0E0,0E0,0E0,0E0,0E0,0E0,0E0,0E0,0E0,0E0,0E0,0E0,0E0,0E0],"parents":[2147483647,0,0,1,1,2,2,3,3,4,4,5,5,6,6,7,7,8,8,9,9,10,10,11,11,12,12,13,13,14,14],"right_children":[2,4,6,8,10,12,14,16,18,20,22,24,26,28,30,-1,-1,-1,-1,-1,-1,-1,-1,-1,-1,-1,-1,-1,-1,-1,-1],"split_conditions":[3.857868E-1,2.342E4,5.7142857E-3,5.7591625E-2,5.2522327E1,1.4105263E-1,1.7435898E-1,1.6393442E-2,2.7739252E-3,6.756757E-3,8E0,8.0729164E-2,4.5714285E-2,2.4503312E-1,2.8189912E-1,9.37114E-2,1.3323051E-2,8.012029E-2,2.154254E-2,9.141117E-3,7.864359E-2,7.489156E-2,3.30971E-2,6.3209966E-2,1.1242612E-2,1.0280999E-2,-1.7053362E-2,9.341273E-2,4.1978788E-2,7.5520396E-2,5.6830915E-3],"split_indices":[586,428,555,18,424,549,549,312,123,296,457,549,6,593,461,0,0,0,0,0,0,0,0,0,0,0,0,0,0,0,0],"split_type":[0,0,0,0,0,0,0,0,0,0,0,0,0,0,0,0,0,0,0,0,0,0,0,0,0,0,0,0,0,0,0],"sum_hessian":[6.2198003E3,9.099558E2,5.3098447E3,2.3471777E2,6.7523804E2,4.7609673E3,5.488775E2,1.4388036E2,9.0837425E1,4.7738953E2,1.9784851E2,5.1379584E2,4.2471714E3,2.3661877E2,3.122587E2,1.3720479E2,6.67557E0,4.3180805E1,4.7656616E1,4.5649844E2,2.0891064E1,8.713564E1,1.1071287E2,5.7321297E1,4.5647455E2,4.0610663E2,3.8410647E3,8.673487E1,1.498839E2,2.6498425E1,2.8576028E2],"tree_param":{"num_deleted":"0","num_feature":"607","num_nodes":"31","size_leaf_vector":"1"}},{"base_weights":[8.436513E-3,-9.4431125E-2,4.2664763E-1,-4.1676116E-1,-5.0307205E-3,-4.6714276E-1,5.355278E-1,-4.290619E-1,1.4175911E0,-4.3294866E-2,4.733615E-1,-5.368374E-1,8.048731E-2,4.777624E-1,2.045409E0,-2.3131542E-2,7.0675225E-3,-2.0486904E-2,1.1999183E-1,-4.3246183E-3,1.6867755E-2,4.9298727E-3,5.8714777E-2,-2.866359E-2,6.4751275E-2,1.1937345E-2,4.182921E-2,1.1878929E-1,-2.415241E-2],"categories":[],"categories_nodes":[],"categories_segments":[],"categories_sizes":[],"default_left":[0,0,0,0,0,0,0,0,0,0,0,0,0,0,0,0,0,0,0,0,0,0,0,0,0,0,0,0,0],"id":36,"left_children":[1,3,5,7,9,11,13,15,17,19,21,23,-1,25,27,-1,-1,-1,-1,-1,-1,-1,-1,-1,-1,-1,-1,-1,-1],"loss_changes":[2.6792557E2,1.4403625E2,1.1989621E2,2.5097351E1,7.167014E1,2.0266376E1,9.465106E1,2.0723587E1,1.4376376E1,5.9638527E1,7.605508E1,9.4482765E0,0E0,9.048033E1,3.4642044E1,0E0,0E0,0E0,0E0,0E0,0E0,0E0,0E0,0E0,0E0,0E0,0E0,0E0,0E0],"parents":[2147483647,0,0,1,1,2,2,3,3,4,4,5,5,6,6,7,7,8,8,9,9,10,10,11,11,13,13,14,14],"right_children":[2,4,6,8,10,12,14,16,18,20,22,24,-1,26,28,-1,-1,-1,-1,-1,-1,-1,-1,-1,-1,-1,-1,-1,-1],"split_conditions":[1E0,3.258427E-1,3.112245E-1,8.196721E-3,2.375297E-3,7.168459E-3,4.2735045E-3,3.6231885E-3,2.9090908E-1,4.854369E-3,2.0876827E-3,6.672381E-1,8.048731E-2,2.7210884E-2,4.322767E-3,-2.3131542E-2,7.0675225E-3,-2.0486904E-2,1.1999183E-1,-4.3246183E-3,1.6867755E-2,4.9298727E-3,5.8714777E-2,-2.866359E-2,6.4751275E-2,1.1937345E-2,4.182921E-2,1.1878929E-1,-2.415241E-2],"split_indices":[448,461,433,267,387,247,79,379,484,105,100,438,0,560,92,0,0,0,0,0,0,0,0,0,0,0,0,0,0],"split_type":[0,0,0,0,0,0,0,0,0,0,0,0,0,0,0,0,0,0,0,0,0,0,0,0,0,0,0,0,0],"sum_hessian":[6.225937E3,4.9974785E3,1.2284586E3,1.0843241E3,3.9131545E3,1.3304121E2,1.0954174E3,1.0778623E3,6.461798E0,3.624184E3,2.8897046E2,1.2943912E2,3.6021004E0,1.0563208E3,3.9096554E1,1.01813385E3,5.9728497E1,2.4628565E0,3.998942E0,3.2555103E3,3.686739E2,1.8903888E2,9.993157E1,1.27588524E2,1.8505864E0,6.35003E2,4.213178E2,3.463182E1,4.4647317E0],"tree_param":{"num_deleted":"0","num_feature":"607","num_nodes":"29","size_leaf_vector":"1"}},{"base_weights":[-7.862001E-4,-4.309959E-2,6.420506E-1,-6.830519E-2,5.574357E-1,4.394288E-2,1.2193815E0,-1.402891E-1,1.5659904E-1,2.6825088E-1,1.7386506E0,-8.878781E-2,2.022426E0,8.679222E-2,1.5899215E0,-1.3306883E-2,-3.1447911E-3,7.6570086E-2,6.0098222E-3,-5.2410765E-3,5.499142E-2,9.390388E-2,-5.566212E-5,-9.044893E-3,6.881618E-2,-2.0223657E-2,1.3019755E-1,3.384429E-2,-2.0966431E-2,8.474834E-2,-1.442489E-2],"categories":[],"categories_nodes":[],"categories_segments":[],"categories_sizes":[],"default_left":[0,0,0,0,0,0,0,0,0,0,0,0,0,0,0,0,0,0,0,0,0,0,0,0,0,0,0,0,0,0,0],"id":37,"left_children":[1,3,5,7,9,11,13,15,17,19,21,23,25,27,29,-1,-1,-1,-1,-1,-1,-1,-1,-1,-1,-1,-1,-1,-1,-1,-1],"loss_changes":[1.6930368E2,8.843496E1,1.3268098E2,9.077217E1,7.9925026E1,5.00322E1,8.1931946E1,4.1347466E1,6.785854E1,5.9135727E1,1.1185333E1,2.4386597E1,1.7956532E1,1.4997345E1,2.9552734E1,0E0,0E0,0E0,0E0,0E0,0E0,0E0,0E0,0E0,0E0,0E0,0E0,0E0,0E0,0E0,0E0],"parents":[2147483647,0,0,1,1,2,2,3,3,4,4,5,5,6,6,7,7,8,8,9,9,10,10,11,11,12,12,13,13,14,14],"right_children":[2,4,6,8,10,12,14,16,18,20,22,24,26,28,30,-1,-1,-1,-1,-1,-1,-1,-1,-1,-1,-1,-1,-1,-1,-1,-1],"split_conditions":[2E0,1E0,4.5248665E1,3.7317786E-1,5.319149E-3,3.0576935E-2,9.380863E-4,8.489209E-2,1.1428571E-3,8.503401E-4,5.988024E-3,3.5971224E-3,7.413793E-1,3.3898305E-3,1E0,-1.3306883E-2,-3.1447911E-3,7.6570086E-2,6.0098222E-3,-5.2410765E-3,5.499142E-2,9.390388E-2,-5.566212E-5,-9.044893E-3,6.881618E-2,-2.0223657E-2,1.3019755E-1,3.384429E-2,-2.0966431E-2,8.474834E-2,-1.442489E-2],"split_indices":[447,455,424,502,332,430,53,10,555,154,377,42,545,203,454,0,0,0,0,0,0,0,0,0,0,0,0,0,0,0,0],"split_type":[0,0,0,0,0,0,0,0,0,0,0,0,0,0,0,0,0,0,0,0,0,0,0,0,0,0,0,0,0,0,0],"sum_hessian":[6.2222437E3,5.8388467E3,3.833969E2,5.6045015E3,2.3434521E2,1.8883856E2,1.9455836E2,4.245911E3,1.3585903E3,1.8924211E2,4.5103115E1,1.7786148E2,1.0977088E1,4.82653E1,1.4629306E2,1.615889E3,2.6300222E3,3.3986004E1,1.3246044E3,1.3123833E2,5.8003784E1,4.1683075E1,3.4200368E0,1.681656E2,9.69587E0,2.1807117E0,8.796376E0,2.2128252E1,2.6137047E1,1.3863779E2,7.655268E0],"tree_param":{"num_deleted":"0","num_feature":"607","num_nodes":"31","size_leaf_vector":"1"}},{"base_weights":[9.906537E-3,-8.5976645E-2,3.7953916E-1,5.67534E-1,-1.009382E-1,1.3117422E-1,9.5189476E-1,1.3383104E0,-8.52324E-2,-1.7215052E-1,4.9576417E-2,-2.680321E-1,2.9472664E-1,1.4544348E0,6.3061666E-1,1.0192157E-1,1.11941695E-2,-1.436301E-2,1.12181775E-1,-1.2346658E-2,1.4040028E-3,1.0223105E-2,-4.3250634E-3,-2.2978747E-2,2.014828E-3,2.6375044E-2,-4.7392878E-4,4.0430147E-2,9.523612E-2,1.5985897E-2,7.414579E-2],"categories":[],"categories_nodes":[],"categories_segments":[],"categories_sizes":[],"default_left":[0,0,0,0,0,0,0,0,0,0,0,0,0,0,0,0,0,0,0,0,0,0,0,0,0,0,0,0,0,0,0],"id":38,"left_children":[1,3,5,7,9,11,13,15,17,19,21,23,25,27,29,-1,-1,-1,-1,-1,-1,-1,-1,-1,-1,-1,-1,-1,-1,-1,-1],"loss_changes":[2.19763E2,4.8198223E1,1.814285E2,5.563532E1,5.1610332E1,5.8307858E1,6.1458496E1,3.9071083E1,2.9198524E1,4.8945587E1,3.2622658E1,1.5356749E1,4.4836926E1,4.2052216E1,6.244104E1,0E0,0E0,0E0,0E0,0E0,0E0,0E0,0E0,0E0,0E0,0E0,0E0,0E0,0E0,0E0,0E0],"parents":[2147483647,0,0,1,1,2,2,3,3,4,4,5,5,6,6,7,7,8,8,9,9,10,10,11,11,12,12,13,13,14,14],"right_children":[2,4,6,8,10,12,14,16,18,20,22,24,26,28,30,-1,-1,-1,-1,-1,-1,-1,-1,-1,-1,-1,-1,-1,-1,-1,-1],"split_conditions":[3.083451E-1,3.0991735E-3,7.086E4,4.2281878E-1,3.5587188E-3,2.4535E4,7.353952E-1,5.8479533E-3,4.2060086E-1,2.5800377E-1,4.0880505E-2,4.192872E-3,5.8919802E-2,9.513742E-2,2.770083E-3,1.0192157E-1,1.11941695E-2,-1.436301E-2,1.12181775E-1,-1.2346658E-2,1.4040028E-3,1.0223105E-2,-4.3250634E-3,-2.2978747E-2,2.014828E-3,2.6375044E-2,-4.7392878E-4,4.0430147E-2,9.523612E-2,1.5985897E-2,7.414579E-2],"split_indices":[432,550,428,586,602,428,563,176,461,588,560,35,13,423,180,0,0,0,0,0,0,0,0,0,0,0,0,0,0,0,0],"split_type":[0,0,0,0,0,0,0,0,0,0,0,0,0,0,0,0,0,0,0,0,0,0,0,0,0,0,0,0,0,0,0],"sum_hessian":[6.198795E3,4.9226265E3,1.2761682E3,1.093502E2,4.8132764E3,8.908338E2,3.853345E2,4.966103E1,5.968917E1,3.2672927E3,1.5459835E3,2.5871396E2,6.321198E2,1.4889984E2,2.3643466E2,2.9990711E1,1.9670319E1,5.573118E1,3.9579918E0,2.3786682E3,8.886245E2,7.227902E2,8.231933E2,1.5927629E2,9.943765E1,3.5768753E2,2.7443228E2,6.231679E1,8.6583046E1,1.7424814E2,6.218652E1],"tree_param":{"num_deleted":"0","num_feature":"607","num_nodes":"31","size_leaf_vector":"1"}},{"base_weights":[1.2588056E-2,-1.6722274E-1,2.1046922E-1,4.13756E-3,-3.6393943E-1,-2.2882834E-1,3.1206617E-1,-2.337358E-2,1.4020976E0,-4.009663E-1,6.043831E-1,-3.016162E-1,1.3582094E0,2.5588182E-1,1.0714204E0,-6.7203376E-3,1.582747E-2,1.2194425E-1,-2.6760107E-2,-2.065598E-2,9.2090175E-2,8.224104E-2,-2.785997E-2,-1.750941E-2,1.0004123E-1,-2.6293023E-2,1.23489335E-1,4.9959845E-3,2.547445E-2,7.4577625E-3,8.2513645E-2],"categories":[],"categories_nodes":[],"categories_segments":[],"categories_sizes":[],"default_left":[0,0,0,0,0,0,0,0,0,0,0,0,0,0,0,0,0,0,0,0,0,0,0,0,0,0,0,0,0,0,0],"id":39,"left_children":[1,3,5,7,9,11,13,15,17,19,21,23,25,27,29,-1,-1,-1,-1,-1,-1,-1,-1,-1,-1,-1,-1,-1,-1,-1,-1],"loss_changes":[2.2098285E2,1.0969015E2,1.3203427E2,6.695386E1,5.4557632E1,6.463071E1,1.02195404E2,6.44861E1,6.879047E1,4.0548416E1,6.88282E1,6.0239254E1,5.2737392E1,8.8454666E1,8.7920685E1,0E0,0E0,0E0,0E0,0E0,0E0,0E0,0E0,0E0,0E0,0E0,0E0,0E0,0E0,0E0,0E0],"parents":[2147483647,0,0,1,1,2,2,3,3,4,4,5,5,6,6,7,7,8,8,9,9,10,10,11,11,12,12,13,13,14,14],"right_children":[2,4,6,8,10,12,14,16,18,20,22,24,26,28,30,-1,-1,-1,-1,-1,-1,-1,-1,-1,-1,-1,-1,-1,-1,-1,-1],"split_conditions":[7.874016E-2,4.579465E4,2.2149123E-1,1.5789473E-2,3.0864198E-3,6.1728396E-3,3.6363637E-3,4.784689E-3,2.762431E-3,6.677796E-3,2.5E-1,2.2845691E-1,2.020202E-3,4.201681E-3,2.3201855E-3,-6.7203376E-3,1.582747E-2,1.2194425E-1,-2.6760107E-2,-2.065598E-2,9.2090175E-2,8.224104E-2,-2.785997E-2,-1.750941E-2,1.0004123E-1,-2.6293023E-2,1.23489335E-1,4.9959845E-3,2.547445E-2,7.4577625E-3,8.2513645E-2],"split_indices":[1,421,465,24,395,50,149,404,78,171,572,570,168,64,281,0,0,0,0,0,0,0,0,0,0,0,0,0,0,0,0],"split_type":[0,0,0,0,0,0,0,0,0,0,0,0,0,0,0,0,0,0,0,0,0,0,0,0,0,0,0,0,0,0,0],"sum_hessian":[6.2086797E3,3.2529456E3,2.9557341E3,1.7390417E3,1.5139038E3,5.5494434E2,2.4007898E3,1.7064431E3,3.2598648E1,1.4587113E3,5.5192516E1,5.3138293E2,2.356138E1,2.2366387E3,1.6415114E2,1.2867432E3,4.1969992E2,2.1065882E1,1.1532765E1,1.4516606E3,7.0505958E0,2.8895021E1,2.6297493E1,5.21235E2,1.0148E1,8.938307E0,1.4623074E1,1.3858002E3,8.508385E2,6.3784E1,1.00367134E2],"tree_param":{"num_deleted":"0","num_feature":"607","num_nodes":"31","size_leaf_vector":"1"}},{"base_weights":[1.1661685E-2,-1.1400919E-1,2.2057013E-1,2.7365816E-1,-1.7100988E-1,6.0944027E-1,9.030986E-2,1.3325585E-1,1.9899142E0,-2.0790644E-1,4.820295E-1,8.3587015E-1,-2.4708638E-1,4.646515E-3,9.20816E-1,3.9888132E-2,-7.7379644E-3,-2.5621373E-2,1.3017718E-1,-2.0300042E-2,-5.114625E-3,-1.3476391E-2,6.0635258E-2,8.083613E-2,2.5279766E-2,1.0773366E-1,-2.3029104E-2,-1.160319E-3,1.1099291E-1,-1.5127577E-2,7.292242E-2],"categories":[],"categories_nodes":[],"categories_segments":[],"categories_sizes":[],"default_left":[0,0,0,0,0,0,0,0,0,0,0,0,0,0,0,0,0,0,0,0,0,0,0,0,0,0,0,0,0,0,0],"id":40,"left_children":[1,3,5,7,9,11,13,15,17,19,21,23,25,27,29,-1,-1,-1,-1,-1,-1,-1,-1,-1,-1,-1,-1,-1,-1,-1,-1],"loss_changes":[1.6345895E2,8.595235E1,1.18403564E2,1.1991075E2,8.1779E1,1.1397746E2,1.2470736E2,8.856055E1,5.9134247E1,6.710176E1,1.0004385E2,1.18896545E2,6.428059E1,9.8157684E1,1.08240906E2,0E0,0E0,0E0,0E0,0E0,0E0,0E0,0E0,0E0,0E0,0E0,0E0,0E0,0E0,0E0,0E0],"parents":[2147483647,0,0,1,1,2,2,3,3,4,4,5,5,6,6,7,7,8,8,9,9,10,10,11,11,12,12,13,13,14,14],"right_children":[2,4,6,8,10,12,14,16,18,20,22,24,26,28,30,-1,-1,-1,-1,-1,-1,-1,-1,-1,-1,-1,-1,-1,-1,-1,-1],"split_conditions":[2.8877005E-1,4.032258E-3,5.5710305E-3,1.754386E-2,2.444988E-3,7.5376886E-3,4.1544884E-1,4.1612902E-1,4.961637E-1,2.4908425E-1,3.0864198E-3,2.3481782E-1,6.956522E-1,1.6129032E-2,1.3020834E-3,3.9888132E-2,-7.7379644E-3,-2.5621373E-2,1.3017718E-1,-2.0300042E-2,-5.114625E-3,-1.3476391E-2,6.0635258E-2,8.083613E-2,2.5279766E-2,1.0773366E-1,-2.3029104E-2,-1.160319E-3,1.1099291E-1,-1.5127577E-2,7.292242E-2],"split_indices":[589,19,2,361,222,208,504,524,494,589,183,593,469,335,123,0,0,0,0,0,0,0,0,0,0,0,0,0,0,0,0],"split_type":[0,0,0,0,0,0,0,0,0,0,0,0,0,0,0,0,0,0,0,0,0,0,0,0,0,0,0,0,0,0,0],"sum_hessian":[6.2241704E3,3.886602E3,2.3375684E3,4.977249E2,3.3888772E3,5.8561993E2,1.7519485E3,4.610826E2,3.6642292E1,3.2082913E3,1.8058604E2,4.6319473E2,1.2242524E2,1.5890499E3,1.6289847E2,1.3888292E2,3.221997E2,7.24846E0,2.9393833E1,1.1146876E3,2.0936035E3,8.933209E1,9.125395E1,1.365236E2,3.266711E2,9.251903E0,1.1317333E2,1.5702954E3,1.8754536E1,4.9866314E1,1.1303215E2],"tree_param":{"num_deleted":"0","num_feature":"607","num_nodes":"31","size_leaf_vector":"1"}},{"base_weights":[1.2770075E-2,2.5795528E-1,-2.808424E-1,-3.789326E-1,4.5308375E-1,-2.9982015E-1,2.1942098E0,-4.7025532E-1,7.337612E-1,-1.2802E-2,7.019481E-1,-1.16355345E-1,-4.7668484E-1,-2.1921303E-2,1.3421112E-1,-2.6134295E-2,7.7014685E-2,9.411623E-2,-2.7821152E-2,-4.3001804E-3,1.16572395E-1,6.2230032E-2,2.3033317E-2,-1.0625525E-2,4.1263383E-2,-2.5147578E-2,3.8792342E-2],"categories":[],"categories_nodes":[],"categories_segments":[],"categories_sizes":[],"default_left":[0,0,0,0,0,0,0,0,0,0,0,0,0,0,0,0,0,0,0,0,0,0,0,0,0,0,0],"id":41,"left_children":[1,3,5,7,9,11,13,15,17,19,21,23,25,-1,-1,-1,-1,-1,-1,-1,-1,-1,-1,-1,-1,-1,-1],"loss_changes":[4.4956262E2,4.230841E2,1.341398E2,8.149838E1,3.0208478E2,9.148332E1,2.922744E1,7.8672E1,9.139071E1,1.5603967E2,2.217832E2,1.2566764E2,4.7635803E1,0E0,0E0,0E0,0E0,0E0,0E0,0E0,0E0,0E0,0E0,0E0,0E0,0E0,0E0],"parents":[2147483647,0,0,1,1,2,2,3,3,4,4,5,5,6,6,7,7,8,8,9,9,10,10,11,11,12,12],"right_children":[2,4,6,8,10,12,14,16,18,20,22,24,26,-1,-1,-1,-1,-1,-1,-1,-1,-1,-1,-1,-1,-1,-1],"split_conditions":[1.1789181E-2,2.9069766E-1,2.6685392E-2,2.4752475E-3,1.8181819E-1,1.1976048E-2,9.451796E-4,8.787346E-3,3.0169493E-1,1.0638298E-2,7.3E-1,6.451613E-3,1.5625E-2,-2.1921303E-2,1.3421112E-1,-2.6134295E-2,7.7014685E-2,9.411623E-2,-2.7821152E-2,-4.3001804E-3,1.16572395E-1,6.2230032E-2,2.3033317E-2,-1.0625525E-2,4.1263383E-2,-2.5147578E-2,3.8792342E-2],"split_indices":[445,462,88,299,549,592,373,27,432,86,490,295,349,0,0,0,0,0,0,0,0,0,0,0,0,0,0],"split_type":[0,0,0,0,0,0,0,0,0,0,0,0,0,0,0,0,0,0,0,0,0,0,0,0,0,0,0],"sum_hessian":[6.2428354E3,3.4020376E3,2.8407976E3,7.9764136E2,2.6043962E3,2.8200535E3,2.0744236E1,7.376751E2,5.9966248E1,9.071386E2,1.6972577E3,1.3850131E3,1.4350404E3,3.27175E0,1.7472486E1,7.196484E2,1.8026783E1,3.1481472E1,2.8484776E1,8.806041E2,2.6534452E1,5.211075E2,1.1761503E3,1.2573875E3,1.2762559E2,1.4061506E3,2.8889809E1],"tree_param":{"num_deleted":"0","num_feature":"607","num_nodes":"27","size_leaf_vector":"1"}},{"base_weights":[-3.1077268E-3,7.004513E-1,-1.2193451E-1,1.3481808E0,4.6008047E-1,6.1787766E-1,-2.218121E-1,1.6742622E0,8.908598E-1,8.5627085E-1,2.0772597E-1,3.918342E-1,1.3238853E0,-2.8156888E-1,3.468677E-1,8.606759E-2,-4.4786613E-3,6.61292E-2,6.6036666E-3,8.6356334E-2,3.4806557E-2,4.080553E-2,3.4044764E-3,7.779244E-2,1.5246569E-2,7.905009E-2,2.8332923E-2,1.4608972E-2,-1.5947787E-2,5.204179E-3,5.1899653E-2],"categories":[],"categories_nodes":[],"categories_segments":[],"categories_sizes":[],"default_left":[0,0,0,0,0,0,0,0,0,0,0,0,0,0,0,0,0,0,0,0,0,0,0,0,0,0,0,0,0,0,0],"id":42,"left_children":[1,3,5,7,9,11,13,15,17,19,21,23,25,27,29,-1,-1,-1,-1,-1,-1,-1,-1,-1,-1,-1,-1,-1,-1,-1,-1],"loss_changes":[5.1866144E2,1.3894699E2,3.9231366E2,3.4611755E1,6.534032E1,1.0027289E2,1.590322E2,1.179837E1,3.3537025E1,3.431317E1,3.4065132E1,4.806253E1,2.8843872E1,9.088907E1,7.4589005E1,0E0,0E0,0E0,0E0,0E0,0E0,0E0,0E0,0E0,0E0,0E0,0E0,0E0,0E0,0E0,0E0],"parents":[2147483647,0,0,1,1,2,2,3,3,4,4,5,5,6,6,7,7,8,8,9,9,10,10,11,11,12,12,13,13,14,14],"right_children":[2,4,6,8,10,12,14,16,18,20,22,24,26,28,30,-1,-1,-1,-1,-1,-1,-1,-1,-1,-1,-1,-1,-1,-1,-1,-1],"split_conditions":[3.8367346E-1,2.317E4,1.3879004E-1,5.5172414E-2,3.529412E-1,5.7471264E-3,5.5555557E-3,1.923077E-2,2.0533882E-3,2.4719797E-2,2.3497997E-1,1.0877193E-1,4.032258E-3,4.0572792E-2,2.6820451E-2,8.606759E-2,-4.4786613E-3,6.61292E-2,6.6036666E-3,8.6356334E-2,3.4806557E-2,4.080553E-2,3.4044764E-3,7.779244E-2,1.5246569E-2,7.905009E-2,2.8332923E-2,1.4608972E-2,-1.5947787E-2,5.204179E-3,5.1899653E-2],"split_indices":[586,428,549,18,586,571,497,137,143,430,483,507,73,6,430,0,0,0,0,0,0,0,0,0,0,0,0,0,0,0,0],"split_type":[0,0,0,0,0,0,0,0,0,0,0,0,0,0,0,0,0,0,0,0,0,0,0,0,0,0,0,0,0,0,0],"sum_hessian":[6.2019395E3,8.9541296E2,5.306527E3,2.4110268E2,6.543103E2,6.305722E2,4.6759546E3,1.3919331E2,1.01909355E2,2.5366669E2,4.0064362E2,4.7882208E2,1.5175014E2,4.231784E3,4.4417044E2,1.3559732E2,3.5959954E0,6.447959E1,3.7429768E1,3.7880997E1,2.1578569E2,7.388558E1,3.2675803E2,3.2090088E1,4.46732E2,1.12472305E2,3.9277832E1,2.584668E2,3.9733171E3,3.29553E2,1.1461745E2],"tree_param":{"num_deleted":"0","num_feature":"607","num_nodes":"31","size_leaf_vector":"1"}},{"base_weights":[-3.585037E-3,-9.05104E-2,3.4964335E-1,2.2511309E-2,-3.3308527E-1,-2.7205732E-1,4.963567E-1,7.173781E-2,-4.4649112E-1,-4.0067014E-1,2.4061965E-2,-3.7655774E-1,8.450258E-1,9.0894383E-1,3.2399377E-1,6.4546004E-4,1.9854134E-2,-2.3710586E-2,5.0249036E-2,-2.0696389E-2,7.926821E-2,-3.5189658E-3,1.14754155E-1,-2.0921923E-2,1.0215298E-1,-2.6336348E-2,1.07743956E-1,7.370341E-2,1.0466888E-2,3.273833E-2,9.5726206E-4],"categories":[],"categories_nodes":[],"categories_segments":[],"categories_sizes":[],"default_left":[0,0,0,0,0,0,0,0,0,0,0,0,0,0,0,0,0,0,0,0,0,0,0,0,0,0,0,0,0,0,0],"id":43,"left_children":[1,3,5,7,9,11,13,15,17,19,21,23,25,27,29,-1,-1,-1,-1,-1,-1,-1,-1,-1,-1,-1,-1,-1,-1,-1,-1],"loss_changes":[1.9134007E2,1.3711456E2,1.12387955E2,7.881525E1,3.8377747E1,2.7823523E1,7.05403E1,5.911927E1,1.3524269E1,3.585086E1,5.4612797E1,2.2759161E1,3.790542E1,1.1551297E2,7.098733E1,0E0,0E0,0E0,0E0,0E0,0E0,0E0,0E0,0E0,0E0,0E0,0E0,0E0,0E0,0E0,0E0],"parents":[2147483647,0,0,1,1,2,2,3,3,4,4,5,5,6,6,7,7,8,8,9,9,10,10,11,11,12,12,13,13,14,14],"right_children":[2,4,6,8,10,12,14,16,18,20,22,24,26,28,30,-1,-1,-1,-1,-1,-1,-1,-1,-1,-1,-1,-1,-1,-1,-1,-1],"split_conditions":[1E0,3.8917527E-1,4.1463414E-1,9.285591E0,3.117284E-1,9.6296296E-2,2.2972973E-1,4.1709495E0,1.0504202E-2,1.0471204E-2,3.4364262E-3,6.329114E-3,4.2735045E-3,2.4561404E-1,1.3001083E-2,6.4546004E-4,1.9854134E-2,-2.3710586E-2,5.0249036E-2,-2.0696389E-2,7.926821E-2,-3.5189658E-3,1.14754155E-1,-2.0921923E-2,1.0215298E-1,-2.6336348E-2,1.07743956E-1,7.370341E-2,1.0466888E-2,3.273833E-2,9.5726206E-4],"split_indices":[448,482,586,422,503,8,530,458,211,87,400,411,96,593,550,0,0,0,0,0,0,0,0,0,0,0,0,0,0,0,0],"split_type":[0,0,0,0,0,0,0,0,0,0,0,0,0,0,0,0,0,0,0,0,0,0,0,0,0,0,0,0,0,0,0],"sum_hessian":[6.2296304E3,4.9999463E3,1.2296843E3,3.4113977E3,1.5885485E3,2.346206E2,9.9506366E2,3.088116E3,3.2328168E2,1.3356705E3,2.5287793E2,2.1515617E2,1.9464428E1,2.9194888E2,7.031148E2,2.6161123E3,4.7200378E2,3.178839E2,5.397745E0,1.3275999E3,8.070702E0,2.4371208E2,9.165851E0,2.1230843E2,2.847746E0,9.7996025E0,9.664825E0,1.608839E2,1.31065E2,3.3666833E2,3.6644644E2],"tree_param":{"num_deleted":"0","num_feature":"607","num_nodes":"31","size_leaf_vector":"1"}},{"base_weights":[-3.8882773E-4,-3.065795E-2,8.590275E-1,-1.4103125E-1,9.0889E-2,4.604146E-2,1.5164732E0,4.413816E-1,-1.642242E-1,4.0047842E-1,8.459127E-3,-2.7215138E-1,1.1176066E0,1.771553E0,1.6285992E-1,-2.6223564E-3,4.5099486E-2,-1.21041015E-2,-2.4751227E-3,9.631359E-4,3.3214673E-2,-6.0024965E-3,8.628563E-3,-2.5465846E-2,4.5772687E-2,1.0855868E-1,-2.6013171E-2,2.3197459E-2,1.0012662E-1,7.698108E-2,-2.77182E-2],"categories":[],"categories_nodes":[],"categories_segments":[],"categories_sizes":[],"default_left":[0,0,0,0,0,0,0,0,0,0,0,0,0,0,0,0,0,0,0,0,0,0,0,0,0,0,0,0,0,0,0],"id":44,"left_children":[1,3,5,7,9,11,13,15,17,19,21,23,25,27,29,-1,-1,-1,-1,-1,-1,-1,-1,-1,-1,-1,-1,-1,-1,-1,-1],"loss_changes":[1.6038686E2,7.99115E1,1.1204724E2,4.224005E1,7.234366E1,3.2633907E1,3.974469E1,2.7302507E1,2.6809685E1,5.9936203E1,4.725978E1,2.1284653E1,3.8929085E1,2.8506256E1,2.009466E1,0E0,0E0,0E0,0E0,0E0,0E0,0E0,0E0,0E0,0E0,0E0,0E0,0E0,0E0,0E0,0E0],"parents":[2147483647,0,0,1,1,2,2,3,3,4,4,5,5,6,6,7,7,8,8,9,9,10,10,11,11,12,12,13,13,14,14],"right_children":[2,4,6,8,10,12,14,16,18,20,22,24,26,28,30,-1,-1,-1,-1,-1,-1,-1,-1,-1,-1,-1,-1,-1,-1,-1,-1],"split_conditions":[3E0,6.174613E0,4.482243E1,2.7173914E-3,5.167959E-3,2.4213076E-3,4.494382E-3,2.0283975E-3,3.188908E-1,3.865139E1,3.6363637E-1,7.774648E-1,3.215434E-3,1.0515247E-3,2.4137931E-2,-2.6223564E-3,4.5099486E-2,-1.21041015E-2,-2.4751227E-3,9.631359E-4,3.3214673E-2,-6.0024965E-3,8.628563E-3,-2.5465846E-2,4.5772687E-2,1.0855868E-1,-2.6013171E-2,2.3197459E-2,1.0012662E-1,7.698108E-2,-2.77182E-2],"split_indices":[447,422,424,471,581,314,305,65,462,424,502,600,40,53,7,0,0,0,0,0,0,0,0,0,0,0,0,0,0,0,0],"split_type":[0,0,0,0,0,0,0,0,0,0,0,0,0,0,0,0,0,0,0,0,0,0,0,0,0,0,0,0,0,0,0],"sum_hessian":[6.163446E3,5.9546826E3,2.0876292E2,3.1207021E3,2.8339807E3,9.381855E1,1.14944374E2,1.1882334E2,3.0018787E3,5.950896E2,2.238891E3,7.291348E1,2.0905062E1,9.64586E1,1.8485765E1,5.7771404E1,6.105194E1,1.7875906E3,1.2142881E3,2.4382816E2,3.5126144E2,1.2557985E3,9.830926E2,6.125247E1,1.1661017E1,1.2523597E1,8.381465E0,1.4932482E1,8.152612E1,5.9389305E0,1.2546835E1],"tree_param":{"num_deleted":"0","num_feature":"607","num_nodes":"31","size_leaf_vector":"1"}},{"base_weights":[-9.791411E-3,-1.0326348E-1,3.4617847E-1,2.7312858E-2,-1.8140474E-1,7.6307063E-3,6.403521E-1,-8.671725E-2,1.9823149E-1,-2.1360253E-1,1.6474298E-1,-1.05394125E-1,4.7369528E-1,2.75534E-1,9.814988E-1,1.116719E-2,-8.908996E-3,8.295372E-3,1.0267115E-1,-1.2446907E-2,4.347215E-3,2.5158498E-2,-5.023733E-3,7.364289E-3,-1.4277858E-2,1.6138282E-3,6.130122E-2,-1.3954091E-3,3.4491953E-2,3.721984E-2,8.4680736E-2],"categories":[],"categories_nodes":[],"categories_segments":[],"categories_sizes":[],"default_left":[0,0,0,0,0,0,0,0,0,0,0,0,0,0,0,0,0,0,0,0,0,0,0,0,0,0,0,0,0,0,0],"id":45,"left_children":[1,3,5,7,9,11,13,15,17,19,21,23,25,27,29,-1,-1,-1,-1,-1,-1,-1,-1,-1,-1,-1,-1,-1,-1,-1,-1],"loss_changes":[2.0503423E2,4.9802574E1,1.276288E2,3.564593E1,3.4066246E1,3.1490452E1,8.507077E1,3.1155577E1,4.354669E1,2.9694077E1,2.3424675E1,2.1947176E1,3.870713E1,4.185177E1,5.85036E1,0E0,0E0,0E0,0E0,0E0,0E0,0E0,0E0,0E0,0E0,0E0,0E0,0E0,0E0,0E0,0E0],"parents":[2147483647,0,0,1,1,2,2,3,3,4,4,5,5,6,6,7,7,8,8,9,9,10,10,11,11,12,12,13,13,14,14],"right_children":[2,4,6,8,10,12,14,16,18,20,22,24,26,28,30,-1,